const float biases_C1[6] = {
0.14939218759536743, 
0.0851452574133873, 
0.3064821660518646, 
0.0011148309567943215, 
-0.02095904015004635, 
-0.07380764186382294};

const float biases_C2[16] = {
0.06328567862510681, 
-0.05968035012483597, 
-0.034698884934186935, 
0.008687641471624374, 
-0.09816224873065948, 
-0.023008225485682487, 
-0.06532333046197891, 
-0.08841554075479507, 
-0.04877093806862831, 
-0.07096884399652481, 
0.10174651443958282, 
-0.04207039996981621, 
-0.011267025955021381, 
0.0005263897473923862, 
-0.002350225578993559, 
-0.023165931925177574};

const float biases_F1[120] = {-0.04220420867204666, -0.024483053013682365, -0.05926075577735901, -0.04237871244549751, -0.06017880141735077, -4.226707460475154e-05, 0.04367729276418686, 0.0378950797021389, 0.06265394389629364, -0.06215871870517731, -0.0013648265739902854, 0.08213961124420166, -0.001121373032219708, -0.04684744030237198, -0.06540966033935547, 0.010864234529435635, 0.05127548798918724, 0.06142539158463478, -0.027890600264072418, -0.016778241842985153, 0.044119834899902344, 0.08784814924001694, 0.004421764053404331, 0.029592551290988922, 0.012501122429966927, -0.017863981425762177, 0.01024115364998579, 0.04787657409906387, 0.0874003991484642, -0.05582432821393013, -0.06720136106014252, -0.07018393278121948, 0.042470782995224, -0.0372539684176445, -0.022653285413980484, -0.055501051247119904, 0.028620468452572823, 0.02196422964334488, -0.033525045961141586, 0.056264568120241165, 0.02427123673260212, 0.043224167078733444, -0.019428372383117676, -0.07929277420043945, -0.04617128521203995, 0.04681968688964844, -0.06948049366474152, -0.025456992909312248, -0.10047634690999985, 0.056338146328926086, 0.041150812059640884, -0.05249737575650215, 0.007022837642580271, 0.03946997597813606, 0.0389380119740963, 0.04791628569364548, -0.06135931238532066, -0.03900565579533577, -0.06618622690439224, 0.017683472484350204, -0.012395081110298634, -0.05523432418704033, -0.05646962672472, -0.0012333231279626489, 0.011715262196958065, 0.036137085407972336, -0.010992273688316345, 0.015850480645895004, -0.04522934556007385, -0.06793460994958878, 0.08078647404909134, 0.06673379242420197, -0.01768382079899311, -0.02008131518959999, -0.04054385423660278, -0.042759183794260025, 0.02313046157360077, -0.009651477448642254, -0.02580229565501213, 0.04939301684498787, -0.03821665793657303, 0.02836690843105316, -0.04328318312764168, -0.05501258000731468, -0.05132098123431206, -0.07739941030740738, -0.06876257807016373, -0.02060903050005436, -0.04873046278953552, 0.08557719737291336, -0.06437903642654419, 0.05243377387523651, 0.06347718834877014, 0.022205142304301262, 0.020229056477546692, -0.039204198867082596, -0.10589051991701126, 0.015340815298259258, 0.03635425120592117, 0.08210558444261551, 0.00263656466268003, 0.03970518335700035, 0.10291194170713425, -0.06051197648048401, -0.01776862144470215, 0.027894306927919388, -0.018545901402831078, 0.07141213864088058, -0.0076760887168347836, 0.07730445265769958, 0.07641352713108063, 0.011738460510969162, 0.028822049498558044, 0.07100930064916611, -0.09584930539131165, 0.037526655942201614, -0.03697475790977478, 0.012075304053723812, -0.01525205746293068, -0.007497221231460571};

const float biases_F2[84] = {0.13334929943084717, 0.01119678933173418, -0.03163754940032959, 0.03533066809177399, -0.08063212037086487, 0.049080390483140945, 0.09316956251859665, 0.10564479976892471, 0.03738364204764366, -0.07266905158758163, -0.0738758072257042, -0.09168166667222977, -0.02309633232653141, -0.06205279752612114, -0.11344001442193985, 0.014635326340794563, 0.0319426953792572, -0.0707278624176979, -0.047563958913087845, 0.03437744826078415, 0.06853582710027695, -0.13630624115467072, 0.06391435861587524, 0.12195518612861633, -0.0427682027220726, -0.12636920809745789, -0.026131056249141693, -0.07935526967048645, 0.11890073120594025, 0.03272160887718201, -0.053214237093925476, -0.0025264068972319365, 0.07369555532932281, 0.06168330833315849, 0.11918561905622482, -0.1228698119521141, 0.05884838476777077, -0.0959818959236145, -0.16246968507766724, -0.06280392408370972, -0.04764137789607048, 0.06709180027246475, -0.07791059464216232, -0.01677805744111538, 0.037667762488126755, -0.07326995581388474, -0.10488177090883255, 0.008649635128676891, 0.05040676146745682, -0.02432606741786003, 0.026990488171577454, -0.0679168850183487, -0.04887179285287857, 0.09177923202514648, 0.09185004979372025, -0.06605612486600876, 0.1407637894153595, -0.023105930536985397, 0.04406348243355751, 0.05220993980765343, 0.04283873736858368, 0.09498842805624008, 0.010115766897797585, -0.12645842134952545, 0.0943920910358429, -0.10353735089302063, 0.08276695013046265, -0.08296382427215576, 0.07680819928646088, 0.044339120388031006, -0.06374139338731766, 0.0327058844268322, 0.042799364775419235, -0.10219138115644455, -0.11880186945199966, 0.10153981298208237, -0.08924755454063416, -0.1248607337474823, -0.058763131499290466, 0.14032426476478577, 0.09422124922275543, -0.1005023792386055, 0.01402854174375534, -0.034317027777433395};

const float biases_F3[10] = {-0.03512551262974739, 0.1413928121328354, 0.0449431911110878, -0.041268546134233475, 0.04975689575076103, 0.009216735139489174, -0.040854040533304214, -0.12034348398447037, 0.046951185911893845, 0.10685476660728455};
