const float weights_C1[6][1][5][5] = {
    {
        {
            {0.12188741564750671, 0.22908926010131836, -0.034920431673526764, 0.32103651762008667, 0.056175269186496735}, 
            {0.14078664779663086, 0.12609180808067322, 0.06647944450378418, 0.2711365222930908, 0.31258419156074524}, 
            {-0.1928321272134781, -0.011965382844209671, -0.053090211004018784, -0.10217013955116272, 0.29873669147491455}, 
            {-0.127168208360672, -0.39013561606407166, -0.016202012076973915, -0.11796511709690094, -0.1900297999382019}, 
            {-0.10766514390707016, -0.03516976535320282, -0.35672059655189514, -0.3101695477962494, -0.3747059106826782}
        }
    },
    {
        {
            {-0.2542485296726227, -0.27102723717689514, -0.24890562891960144, 0.2557609975337982, 0.04355901479721069}, 
            {-0.0071658180095255375, -0.038252491503953934, -0.22667954862117767, 0.12352093309164047, 0.2610982358455658}, 
            {-0.2477954775094986, -0.3259966969490051, -0.2411009520292282, 0.052533093839883804, 0.3177835941314697}, 
            {-0.23087598383426666, -0.322478324174881, -0.05567806959152222, 0.23766934871673584, 0.19076023995876312}, 
            {-0.20155589282512665, -0.17001034319400787, 0.060288332402706146, 0.09728741645812988, -0.007812613621354103}
        }
    },
    {
        {
            {0.30467134714126587, 0.24655495584011078, 0.17443834245204926, -0.28651365637779236, -0.4821893572807312}, 
            {0.3284267485141754, 0.059451039880514145, 0.05170475319027901, -0.4264574348926544, -0.26353996992111206}, 
            {0.20224162936210632, -0.12773634493350983, -0.18777848780155182, -0.5310446619987488, 0.06896372884511948}, 
            {-0.05431687831878662, -0.008676975965499878, -0.4578448235988617, -0.2552352547645569, 0.1713353544473648}, 
            {-0.18882344663143158, -0.369499146938324, -0.18120892345905304, -0.19116179645061493, 0.08167555928230286}
        }
    },
    {
        {
            {0.07169588655233383, -0.007272689137607813, -0.024932220578193665, -0.004426839295774698, 0.010617942549288273}, 
            {-0.1933310180902481, 0.10881862044334412, 0.2525250315666199, 0.15472455322742462, 0.038669828325510025}, 
            {-0.003428582102060318, -0.024847159162163734, 0.1920383870601654, 0.23471742868423462, 0.2791999578475952}, 
            {-0.124105304479599, 0.1934339702129364, 0.16188055276870728, 0.28447312116622925, 0.1370677649974823}, 
            {-0.09052743762731552, 0.22704549133777618, 0.21935832500457764, 0.11656752228736877, 0.1954142451286316}
        }
    },
    {
        {
            {-0.30213260650634766, 0.09515628963708878, 0.15568336844444275, -0.03321065008640289, 0.04302492365241051}, 
            {-0.27909207344055176, -0.020924542099237442, 0.2663479447364807, 0.06146533042192459, -0.07729054242372513}, 
            {-0.0451936312019825, 0.18679682910442352, 0.022255979478359222, 0.12908285856246948, -0.14859698712825775}, 
            {-0.04502124339342117, 0.27132031321525574, 0.007969719357788563, 0.15953481197357178, -0.12452029436826706}, 
            {0.22366346418857574, 0.1819174736738205, 0.23811979591846466, -0.011209025047719479, -0.11530810594558716}
        }
    },
    {
        {
            {-0.027245676144957542, 0.2268563210964203, 0.22358034551143646, 0.03906768932938576, -0.11407169699668884}, 
            {-0.01047657709568739, -0.029071588069200516, 0.2583678066730499, 0.05657323822379112, -0.33920368552207947}, 
            {0.18245354294776917, 0.18939675390720367, 0.22362101078033447, -0.216643825173378, -0.3108067214488983}, 
            {0.07600947469472885, 0.11196599900722504, -0.07128909975290298, -0.24820134043693542, -0.14702670276165009}, 
            {0.012760572135448456, 0.14204567670822144, 0.19588693976402283, 0.09790269285440445, -0.1433534473180771}
        }
    }
};

const float weights_C2[16][6][5][5] = {
    {
        {
            {0.020008884370326996, 0.02473171055316925, -0.01879105158150196, -0.14761236310005188, -0.14294350147247314}, 
            {-0.11460568010807037, -0.15229301154613495, -0.17592790722846985, -0.19490757584571838, -0.24145761132240295}, 
            {-0.11584865301847458, -0.31518298387527466, -0.2725910544395447, -0.22596560418605804, -0.06701254844665527}, 
            {-0.3028302490711212, -0.2701651155948639, 0.008970984257757664, 0.07232993841171265, 0.08756961673498154}, 
            {-0.28255796432495117, -0.3450298011302948, -0.16539716720581055, 0.06216207146644592, 0.10237330198287964}
        }, 
        {
            {-0.013297723606228828, -0.04672054573893547, -0.056187812238931656, 0.0900263711810112, 0.12710286676883698}, 
            {0.026156511157751083, -0.034473635256290436, -0.05237523838877678, 0.04298977553844452, 0.0715397521853447}, 
            {-0.017033390700817108, 0.009402761235833168, 0.03893503546714783, -0.11449979990720749, -0.19098296761512756}, 
            {0.14112934470176697, 0.041824936866760254, -0.14623114466667175, -0.12923455238342285, -0.027236390858888626}, 
            {0.04475005343556404, 0.0377604141831398, -0.22358347475528717, 0.048689890652894974, 0.06879504024982452}
        }, 
        {
            {-0.01998550072312355, 0.03408129885792732, -0.032592788338661194, 0.04623356834053993, 0.03663456067442894}, 
            {0.06860943138599396, 0.06805415451526642, -0.05773928388953209, -0.10770490020513535, -0.13887742161750793}, 
            {-0.004992268979549408, 0.008092369884252548, -0.15724657475948334, -0.22683629393577576, -0.012019656598567963}, 
            {-0.004598752595484257, -0.07026197016239166, -0.13658809661865234, -0.020721206441521645, 0.11800054460763931}, 
            {-0.152914360165596, 0.052264291793107986, -0.07790393382310867, 0.057987723499536514, 0.0447031706571579}
        }, 
        {
            {-0.015075580216944218, 0.015058720484375954, -0.1147492304444313, -0.05778873711824417, 0.00593903660774231}, 
            {-0.012968679890036583, -0.06156304106116295, 0.01319594494998455, 0.07539018988609314, 0.05768708139657974}, 
            {-0.008437703363597393, 0.11618277430534363, 0.008898662403225899, -0.026122964918613434, -0.031141098588705063}, 
            {0.1358126699924469, 0.14923006296157837, -0.013307398185133934, 0.010665342211723328, -0.07412350922822952}, 
            {0.20005176961421967, 0.16949249804019928, -0.062206611037254333, -0.19632060825824738, -0.01756599359214306}
        }, 
        {
            {-0.07322323322296143, -0.03737907111644745, -0.13434343039989471, -0.11965982615947723, -0.05798559635877609}, 
            {-0.1450565904378891, -0.07046009600162506, 0.04447571188211441, 0.04476804658770561, 0.12048041820526123}, 
            {-0.12323817610740662, -0.00021951337112113833, 0.01563829928636551, 0.047488078474998474, 0.12951278686523438}, 
            {0.06909545511007309, 0.1120406836271286, 0.1343499720096588, -0.01538145076483488, -0.061718523502349854}, 
            {0.055936142802238464, 0.1683102697134018, 0.017321454361081123, -0.018622370436787605, -0.13428151607513428}
        }, 
        {
            {0.005907680373638868, 0.057424113154411316, 0.06625398248434067, -0.09075131267309189, -0.09904060512781143}, 
            {-0.003977705258876085, 0.01595120318233967, 0.014129983261227608, 0.019374459981918335, 0.0020828284323215485}, 
            {-0.12179490178823471, -0.03284366428852081, -0.040151458233594894, -0.04817737638950348, 0.0875205472111702}, 
            {-0.13687580823898315, 0.07686619460582733, -0.02914321795105934, 0.07701009511947632, 0.033010780811309814}, 
            {0.07011646032333374, 0.26406994462013245, 0.10568933188915253, 0.1377507746219635, -0.05147509276866913}
        }
    }, 
    {
        {
            {-0.13240785896778107, -0.08879943937063217, -0.12128930538892746, -0.00031633887556381524, -0.04835503548383713}, 
            {-0.09306902438402176, -0.1202818974852562, -0.21496157348155975, 0.012423915788531303, 0.09862722456455231}, 
            {-0.11932340264320374, -0.1455702930688858, -0.10336549580097198, 0.035686783492565155, 0.047174613922834396}, 
            {-0.25675609707832336, -0.022662164643406868, -0.05237545073032379, 0.035790760070085526, 0.17378796637058258}, 
            {-0.2562602162361145, -0.084520623087883, 0.039133213460445404, 0.06692428886890411, -0.03528393805027008}
        }, 
        {
            {-0.07500915229320526, 0.011723105795681477, -0.034635886549949646, 0.05100312829017639, 0.10522345453500748}, 
            {-0.03786805272102356, 0.10376148670911789, 0.07757699489593506, 0.1856592893600464, 0.004613493103533983}, 
            {0.11694766581058502, 0.21497072279453278, 0.11425656080245972, -0.031008228659629822, -0.04150601103901863}, 
            {0.20157714188098907, 0.19476793706417084, -0.027700893580913544, -0.06251166015863419, 0.05859839543700218}, 
            {0.032439593225717545, 0.11380486190319061, -0.010675741359591484, -0.09452429413795471, 0.06544850021600723}
        }, 
        {
            {0.1744396686553955, 0.21615758538246155, 0.16108353435993195, 0.12361843138933182, 0.05538880452513695}, 
            {0.05908066779375076, 0.05137566104531288, 0.016498880460858345, -0.06793297827243805, -0.11507733166217804}, 
            {0.1816258281469345, 0.08450563251972198, 0.03987431153655052, -0.065911665558815, -0.033004701137542725}, 
            {0.058112647384405136, -0.009858928620815277, -0.12972469627857208, -0.030482038855552673, 0.054334282875061035}, 
            {0.013219157233834267, -0.07343588024377823, -0.05342599004507065, -0.10994277149438858, -0.07657056301832199}
        }, 
        {
            {-0.11135432869195938, -0.13127662241458893, -0.08685527741909027, -0.09317842870950699, 0.01641465350985527}, 
            {-0.10248810052871704, -0.11044885218143463, -0.06877932697534561, -0.06558391451835632, -0.012960867024958134}, 
            {-0.030906246975064278, 0.08432607352733612, -0.012726795859634876, 0.017231380566954613, -0.010229600593447685}, 
            {0.1091078519821167, 0.0004737457202281803, -0.020660730078816414, -0.022852694615721703, -0.027120482176542282}, 
            {0.10735476762056351, 0.0551677942276001, 0.10969110578298569, 0.008485372178256512, 0.010395036078989506}
        }, 
        {
            {0.025036951526999474, -0.09271823614835739, -0.11208880692720413, -0.11725064367055893, -0.030337020754814148}, 
            {-0.08073926717042923, -0.022191530093550682, -0.09569975733757019, 0.043620020151138306, 0.01958765834569931}, 
            {-0.1390490084886551, -0.059722837060689926, 0.11596068739891052, 0.006897106766700745, 0.08791043609380722}, 
            {0.02685556560754776, 0.1398145854473114, 0.1120770201086998, 0.06946582347154617, -0.003214217023923993}, 
            {0.13283371925354004, 0.0536501370370388, 0.04866231232881546, 0.029177093878388405, -0.024728236719965935}
        }, 
        {
            {0.10598228871822357, 0.07438074797391891, -0.08682793378829956, 0.027497947216033936, 0.011283195577561855}, 
            {0.03413224592804909, -0.12908653914928436, -0.1151491180062294, -0.0785241574048996, -0.05470367893576622}, 
            {-0.010563916526734829, 0.04963582381606102, 0.012915229424834251, 0.00024434312945231795, 0.08935293555259705}, 
            {0.09800247102975845, 0.12483938783407211, 0.14460644125938416, 0.1980152130126953, 0.044280074536800385}, 
            {0.14806035161018372, 0.06363042443990707, 0.1450663059949875, 0.01157208252698183, -0.0208364799618721}
        }
    }, 
    {
        {
            {0.26360848546028137, 0.04100716486573219, -0.025052042677998543, -0.12731891870498657, -0.06308026611804962}, 
            {-0.18054257333278656, -0.15759961307048798, -0.08230257034301758, 0.06899452209472656, 0.03004857897758484}, 
            {-0.23649603128433228, -0.15134820342063904, 0.02298876829445362, 0.09289447218179703, 0.05916733294725418}, 
            {-0.11844873428344727, -0.13330475986003876, 0.05758635699748993, 0.07417620718479156, 0.14912141859531403}, 
            {-0.03176642581820488, -0.012579863891005516, 0.13475623726844788, 0.022219043225049973, 0.01611022837460041}
        }, 
        {
            {0.00954755861312151, 0.012356157414615154, -0.003374926745891571, -0.06655940413475037, -0.10324648022651672}, 
            {-0.023695550858974457, 0.0848957821726799, 0.04508442059159279, 0.05093655735254288, -0.042876336723566055}, 
            {0.16239222884178162, 0.13993923366069794, -0.09272344410419464, -0.12711574137210846, -0.056876007467508316}, 
            {0.04193345084786415, 0.03311879560351372, -0.18840345740318298, -0.0018898053094744682, -0.030150873586535454}, 
            {-0.10483299940824509, -0.047443781048059464, -0.1270311176776886, -0.009689655154943466, -0.12638495862483978}
        }, 
        {
            {-0.15583205223083496, -0.10138989984989166, -0.21247483789920807, -0.14102381467819214, -0.16618560254573822}, 
            {-0.10713723301887512, -0.08714432269334793, -0.13458466529846191, -0.12704576551914215, -0.10096025466918945}, 
            {-0.03321285545825958, -0.027690062299370766, 0.014591547660529613, 0.021154019981622696, -0.06132705509662628}, 
            {-0.17835107445716858, -0.029332393780350685, 0.11756651103496552, 0.02467074804008007, -0.02604077197611332}, 
            {0.011643651872873306, 0.05830584093928337, 0.10947172343730927, -0.08227379620075226, -0.060904890298843384}
        }, 
        {
            {0.08886566758155823, 0.054616425186395645, 0.14744020998477936, 0.08832313120365143, 0.058036185801029205}, 
            {0.030654413625597954, 0.1682043969631195, 0.09950802475214005, -0.0002809241123031825, 0.020765788853168488}, 
            {0.04690949618816376, 0.06432947516441345, 0.09552893042564392, -0.04936423897743225, -0.10710590332746506}, 
            {0.16845688223838806, 0.125313863158226, -0.16061115264892578, -0.15066857635974884, -0.08254501968622208}, 
            {0.081024669110775, -0.17088288068771362, -0.1930440366268158, -0.07273667305707932, -0.1375197470188141}
        }, 
        {
            {-0.11783265322446823, -0.045379284769296646, -0.013428031466901302, 0.11418092250823975, -0.030410267412662506}, 
            {-0.18095846474170685, 0.10468221455812454, 0.1276000589132309, 0.11989989876747131, 0.061928294599056244}, 
            {-0.09296082705259323, 0.14217495918273926, 0.15015217661857605, -0.01077578216791153, -0.053252458572387695}, 
            {0.18334977328777313, 0.19175298511981964, 0.08971583098173141, -0.0707528367638588, -0.06612212210893631}, 
            {0.1216556578874588, -0.059920985251665115, -0.12332452833652496, -0.022902753204107285, -0.08726109564304352}
        }, 
        {
            {-0.1778162121772766, -0.15280558168888092, 0.02429191768169403, -0.00022385080228559673, -0.03172292932868004}, 
            {-0.1742631047964096, 0.0397971011698246, 0.0397254154086113, 0.05573491007089615, 0.044644538313150406}, 
            {-0.1775059849023819, 0.15380266308784485, 0.16368331015110016, 0.08929699659347534, -0.0011324328370392323}, 
            {-0.06652586162090302, 0.2561081647872925, 0.17326374351978302, -0.0807262510061264, -0.10114903748035431}, 
            {0.1823803186416626, 0.04436994716525078, -0.12880317866802216, -0.12033209204673767, -0.003492867574095726}
        }
    }, 
    {
        {
            {-0.1874423325061798, -0.2929094433784485, -0.1516432911157608, -0.08092343062162399, -0.008069386705756187}, 
            {-0.037630341947078705, -0.27065715193748474, -0.12934046983718872, 0.10848309099674225, 0.13994751870632172}, 
            {-0.007413493003696203, -0.23819725215435028, -0.07246553897857666, 0.0027868100441992283, 0.018621375784277916}, 
            {0.0042544095776975155, -0.0568477027118206, -0.15618668496608734, 0.008650247007608414, 0.0679454356431961}, 
            {0.016544288024306297, -0.00651965569704771, 0.006158169358968735, 0.025091534480452538, 0.11314556747674942}
        }, 
        {
            {0.03904959559440613, 0.06984095275402069, 0.03472306951880455, -0.008533379063010216, 0.012390398420393467}, 
            {-0.015033749863505363, 0.0802253782749176, -0.07895256578922272, -0.03942083567380905, -0.047509778290987015}, 
            {0.037134263664484024, 0.010181952267885208, -0.04967131093144417, -0.00023806947865523398, -0.02104094624519348}, 
            {0.12178153544664383, 0.11837080121040344, 0.06322100758552551, -0.13724958896636963, -0.032716844230890274}, 
            {-0.02319054678082466, 0.08878415822982788, 0.12329935282468796, -0.08246061205863953, -0.08572882413864136}
        }, 
        {
            {0.08480389416217804, 0.07335110753774643, -0.07474981993436813, 0.023856328800320625, 0.06242677941918373}, 
            {0.056637175381183624, -0.009030778892338276, -0.01835145428776741, -0.07698420435190201, -0.043429628014564514}, 
            {-0.05183133855462074, -0.13610532879829407, -0.1654474437236786, -0.07718724012374878, -0.10843432694673538}, 
            {0.005183152388781309, -0.17917828261852264, -0.1025678962469101, -0.18997806310653687, -0.07345510274171829}, 
            {-0.11962100863456726, -0.1419287919998169, -0.19569365680217743, -0.20140668749809265, -0.09166965633630753}
        }, 
        {
            {-0.027427319437265396, 0.05687887221574783, -0.028767738491296768, -0.036723021417856216, -0.10058309882879257}, 
            {0.07497601211071014, 0.11308174580335617, 0.014775860123336315, -0.08021549135446548, -0.061559125781059265}, 
            {0.07749654352664948, -0.017063215374946594, 0.0273924320936203, 0.04503627493977547, -0.005405789706856012}, 
            {0.033237308263778687, 0.09288376569747925, 0.0681096613407135, 0.03860041871666908, 0.015514301136136055}, 
            {-0.05820417031645775, 0.06462765485048294, 0.08893422037363052, 0.08592667430639267, -0.053609419614076614}
        }, 
        {
            {-0.06633581221103668, 0.014459381811320782, 0.023711292073130608, -0.08362769335508347, -0.08929489552974701}, 
            {-0.07017625123262405, 0.08734383434057236, 0.08180690556764603, -0.01013521570712328, -0.04169744253158569}, 
            {-0.1377291977405548, 0.0741744115948677, 0.03173920512199402, -0.03022892400622368, 0.01158682070672512}, 
            {0.00559326121583581, 0.015358470380306244, 0.0713023841381073, 0.06261095404624939, -0.039619769901037216}, 
            {-0.06871438026428223, 0.03135966882109642, 0.019665909931063652, -0.06828247010707855, -0.07464749366044998}
        }, 
        {
            {0.03258573263883591, 0.11760813742876053, 0.09236951172351837, -0.09176317602396011, -0.009225056506693363}, 
            {-0.074849434196949, 0.09182094782590866, 0.13113413751125336, 0.011731970123946667, -0.05163976177573204}, 
            {-0.07049249112606049, 0.11379986256361008, 0.10779453814029694, 0.07108598202466965, -0.04059910401701927}, 
            {-0.08475695550441742, 0.05343718081712723, 0.10231797397136688, 0.04377879947423935, -0.043884679675102234}, 
            {-0.056047484278678894, 0.027220651507377625, -0.02262963354587555, 0.08319214731454849, 0.03358343243598938}
        }
    }, 
    {
        {
            {-0.06276284903287888, -0.3092471659183502, -0.19536398351192474, 0.0034137312322854996, 0.08912692964076996}, 
            {-0.05470217391848564, -0.19234217703342438, -0.2675645351409912, -0.16771338880062103, -0.034999780356884}, 
            {0.02446400374174118, 0.03138875961303711, -0.16953982412815094, -0.12156417220830917, -0.16204731166362762}, 
            {0.06637515127658844, 0.16313835978507996, 0.19622306525707245, 0.23214270174503326, 0.20558394491672516}, 
            {-0.006094780284911394, 0.049011215567588806, 0.22126275300979614, 0.11273952573537827, 0.2482655644416809}
        }, 
        {
            {-0.03278983384370804, 0.19162441790103912, 0.017290007323026657, -0.07821177691221237, -0.015025824308395386}, 
            {0.012365391477942467, 0.2055504322052002, -0.022067969664931297, -0.15741808712482452, 0.022074341773986816}, 
            {0.10600976645946503, 0.25108253955841064, 0.03805207088589668, -0.18655161559581757, 0.011050109751522541}, 
            {0.055078521370887756, 0.2527228593826294, 0.10912466794252396, -0.1429121494293213, -0.15994063019752502}, 
            {-0.03289168328046799, 0.1187509074807167, 0.006163382437080145, -0.14932581782341003, -0.21372108161449432}
        }, 
        {
            {-0.024597197771072388, -0.017496056854724884, -0.005709342658519745, 0.033077966421842575, 0.06878044456243515}, 
            {0.026137344539165497, -0.1314973533153534, -0.08906731009483337, -0.1854020357131958, -0.13314341008663177}, 
            {0.06710623949766159, -0.15555645525455475, -0.30580389499664307, -0.2994080185890198, -0.11824318021535873}, 
            {0.019079431891441345, -0.26487910747528076, -0.400852233171463, -0.2986328899860382, -0.043974023312330246}, 
            {0.10096265375614166, -0.17662982642650604, -0.21219545602798462, -0.1287383884191513, 0.08259119093418121}
        }, 
        {
            {0.03944052383303642, 0.14102186262607574, -0.012076996266841888, -0.20738579332828522, -0.05583027005195618}, 
            {0.041464902460575104, 0.132754847407341, 0.06479863077402115, -0.15127967298030853, -0.007073574233800173}, 
            {0.037312332540750504, 0.08856791257858276, 0.08593029528856277, 0.09188412874937057, 0.07877747714519501}, 
            {-0.13431698083877563, 0.058757342398166656, 0.06600512564182281, 0.10627993941307068, 0.10400482267141342}, 
            {-0.14495031535625458, -0.03628118336200714, -0.1235322579741478, -0.0397612564265728, 0.003801050130277872}
        }, 
        {
            {-0.13326959311962128, -0.028547003865242004, 0.1354028880596161, -0.03101748414337635, -0.1477283388376236}, 
            {-0.15844200551509857, 0.01301487348973751, 0.056731678545475006, -0.01717112958431244, -0.029337262734770775}, 
            {-0.21562540531158447, 0.013663243502378464, -0.053672999143600464, -0.001751885050907731, 0.10468343645334244}, 
            {-0.053988970816135406, 0.04077044129371643, -0.05308302119374275, -0.03667045757174492, 0.06280669569969177}, 
            {-0.13046196103096008, -0.05525543913245201, -0.047527071088552475, -0.07667785882949829, 0.0435807891190052}
        }, 
        {
            {0.03608747571706772, 0.2890549600124359, 0.20420783758163452, 0.17608344554901123, -0.006897143088281155}, 
            {0.0069264299236238, 0.11581401526927948, 0.24143670499324799, 0.16024905443191528, 0.030935104936361313}, 
            {-0.16282716393470764, -0.03150331601500511, 0.03936159610748291, -0.1152026355266571, 0.11251780390739441}, 
            {-0.1481746882200241, 0.03921358287334442, -0.07646013051271439, -0.2141619473695755, -0.0032206671312451363}, 
            {-0.09227678924798965, -0.024784313514828682, -0.10801448673009872, -0.024178525432944298, 0.035640496760606766}
        }
    }, 
    {
        {
            {0.11530780047178268, -0.12615808844566345, -0.10467027872800827, -0.08115390688180923, 0.02812115289270878}, 
            {-0.20748327672481537, -0.1960396021604538, -0.022805213928222656, -0.006426013074815273, -0.05041215941309929}, 
            {-0.14885546267032623, -0.07553564757108688, -0.07948456704616547, -0.04391844570636749, -0.010026169940829277}, 
            {-0.18814051151275635, -0.08893655985593796, -0.03735543414950371, -0.08933158218860626, -0.15518619120121002}, 
            {-0.03548469766974449, -0.11823567003011703, -0.15492933988571167, -0.19431911408901215, -0.22690479457378387}
        }, 
        {
            {-0.11413311958312988, 0.11921021342277527, 0.18168239295482635, 0.0347498394548893, -0.06948857009410858}, 
            {-0.07596321403980255, 0.0864437147974968, 0.19672097265720367, -0.10412795096635818, -0.10253739356994629}, 
            {-0.0020269800443202257, 0.1673535257577896, 0.1379556655883789, -0.1652655452489853, 0.0015948351938277483}, 
            {0.09611974656581879, 0.06255189329385757, 0.018642690032720566, -0.09218606352806091, 0.05334389954805374}, 
            {0.04062075912952423, 0.09345482289791107, -0.09713644534349442, -0.008129308000206947, 0.05978485196828842}
        }, 
        {
            {0.055267468094825745, -0.10943298041820526, -0.09204558283090591, -0.04983897507190704, 0.13043400645256042}, 
            {0.06227381154894829, -0.1252194046974182, -0.13216188549995422, 0.13657864928245544, 0.15615348517894745}, 
            {0.007575985975563526, -0.024931658059358597, 0.038771357387304306, 0.1883297711610794, 0.2419155389070511}, 
            {0.04335795342922211, 0.1388094574213028, 0.19710083305835724, 0.09032527357339859, -0.013781705871224403}, 
            {0.03575136512517929, 0.15691781044006348, 0.0992681011557579, -0.04956965148448944, -0.03396281972527504}
        }, 
        {
            {-0.13511258363723755, 0.01290093269199133, 0.15912620723247528, 0.138067364692688, -0.08942671865224838}, 
            {-0.10391563922166824, 0.05143182724714279, 0.006859512533992529, -0.0317503958940506, -0.18978255987167358}, 
            {-0.08559916913509369, -0.0022566362749785185, 0.02090945653617382, -0.1831091195344925, -0.17098934948444366}, 
            {0.004537967965006828, 0.004304853733628988, -0.12866047024726868, -0.14621645212173462, -0.13261835277080536}, 
            {-0.04369506612420082, -0.111127108335495, -0.03897235542535782, -0.048834528774023056, -0.002849590964615345}}, 
        {
            {-0.07784359157085419, -0.07520096004009247, 0.02286890335381031, 0.13861244916915894, 0.010221265256404877}, 
            {-0.18954671919345856, -0.058299608528614044, 0.1431177258491516, 0.12288262695074081, -0.06762567907571793}, 
            {-0.11300317198038101, 0.048901673406362534, 0.06609494239091873, -0.08731597661972046, -0.10917285829782486}, 
            {0.09852293133735657, 0.11643483489751816, 0.04013672098517418, -0.18989136815071106, -0.14458321034908295}, 
            {0.07681527733802795, -0.0025287955068051815, -0.08197183161973953, -0.18844474852085114, -0.11605818569660187}
        }, 
        {
            {-0.13925732672214508, -0.1866900473833084, 0.15720082819461823, 0.11312686651945114, 0.10627031326293945}, 
            {-0.13520300388336182, -0.18605393171310425, 0.14917869865894318, 0.14910629391670227, 0.057069890201091766}, 
            {-0.31028637290000916, 0.025275137275457382, 0.23789140582084656, 0.0875369980931282, -0.029478076845407486}, 
            {-0.05294721573591232, 0.15437394380569458, 0.061853498220443726, -0.10928645730018616, -0.17868617177009583}, 
            {0.2089247703552246, 0.13007798790931702, 0.02123427577316761, -0.13380999863147736, -0.039160992950201035}
        }
    }, 
    {
        {
            {-0.07522054761648178, -0.005109982565045357, -0.12213920801877975, -0.09234368801116943, -0.0356084443628788}, 
            {-0.00887457374483347, -0.11500371992588043, -0.0691642314195633, -0.09024006873369217, -0.022605814039707184}, 
            {-0.09189267456531525, 0.002974707167595625, -0.0059054153971374035, -0.009968569502234459, -0.09697254747152328}, 
            {0.017466621473431587, -0.10543236136436462, 0.008633933961391449, -0.03813581541180611, -0.11515502631664276}, 
            {-0.11103221774101257, -0.007380679715424776, -0.03302796557545662, -0.051203835755586624, -0.04007556289434433}
        }, 
        {
            {-0.11616333574056625, -0.015044818632304668, -0.06041509285569191, -0.010400254279375076, -0.05340726673603058}, 
            {-0.07554414868354797, 0.0027760977391153574, -0.06632161885499954, 0.07017359137535095, -0.12740428745746613}, 
            {-0.048545561730861664, -0.11488024145364761, -0.06058613210916519, -0.11197412759065628, -0.12446536123752594}, 
            {-0.0056875599548220634, -0.1165454089641571, -0.030986465513706207, -0.03144296258687973, -0.0947398990392685}, 
            {0.009762581437826157, 0.08385004848241806, 0.02817271091043949, -0.10430840402841568, -0.044612154364585876}
        }, 
        {
            {-0.11440157890319824, -0.1284375786781311, 0.05604737251996994, -0.13060878217220306, -0.12249068915843964}, 
            {-0.04768730327486992, 0.13869798183441162, 0.026370083913207054, -0.1375780999660492, -0.11935208737850189}, 
            {-0.13628628849983215, 0.03962817043066025, -0.003365830285474658, -0.12172861397266388, 0.05705690383911133}, 
            {-0.08112244307994843, 0.04658375680446625, -0.13432182371616364, -0.0985928550362587, 0.06190554052591324}, 
            {-0.08581335097551346, -0.012198208831250668, -0.08789811283349991, -0.012541786767542362, -0.13159985840320587}
        }, 
        {
            {-0.07066027075052261, -0.009992451407015324, -0.04752902686595917, 0.016861597076058388, -0.13487493991851807}, 
            {-0.13930702209472656, -0.02210775576531887, -0.13470184803009033, -0.05750449374318123, -0.08182412385940552}, 
            {-0.07386065274477005, -0.05039961636066437, -0.08860498666763306, -0.001365430187433958, -0.044234633445739746}, 
            {-0.08268719911575317, -0.04399435594677925, 0.01612318493425846, -0.11029119789600372, -0.07616643607616425}, 
            {-0.0522448904812336, -0.1314375102519989, -0.009357762522995472, -0.031218761578202248, -0.07807642221450806}
        }, 
        {
            {-0.09383578598499298, -0.0030168495140969753, 0.01489316951483488, -0.07182993739843369, 0.018219245597720146}, 
            {-0.021804435178637505, -0.08038485050201416, -0.027842765673995018, -0.01426461897790432, -0.13905981183052063}, 
            {-0.08435311913490295, -0.13764502108097076, -0.016117624938488007, 0.10676958411931992, -0.08242285996675491}, 
            {0.01670641265809536, 0.017380455508828163, -0.11542302370071411, 0.12258340418338776, -0.002409993903711438}, 
            {-0.06227552890777588, -0.053217388689517975, 0.05510649085044861, 0.13184544444084167, -0.011597136035561562}
        }, 
        {
            {-0.05117599666118622, 0.007155121304094791, -0.030356887727975845, -0.10396263003349304, -0.006973459850996733}, 
            {-0.10392904281616211, -0.13803748786449432, -0.08770699054002762, 0.004939359612762928, -0.03379537910223007}, 
            {-0.09472779929637909, -0.07513482123613358, -0.11093192547559738, -0.016333820298314095, 0.09835384786128998}, 
            {-0.12368316948413849, 0.006078846286982298, -0.0920170471072197, 0.0347486287355423, -0.06279352307319641}, 
            {-0.05159176513552666, -0.13845045864582062, 0.006133870221674442, 0.1273740977048874, -0.0733848437666893}
        }
    }, 
    {
        {
            {-0.02856532298028469, -0.10469752550125122, -0.12730588018894196, -0.023789100348949432, 0.0013528312556445599}, 
            {-0.23324376344680786, -0.24234414100646973, -0.14684462547302246, 0.002458204748108983, -0.03388325870037079}, 
            {-0.08020172268152237, -0.09722387045621872, -0.029813099652528763, -0.10187122225761414, -0.0077789099887013435}, 
            {-0.017584141343832016, -0.024259978905320168, -0.02947978489100933, -0.1691693663597107, -0.11859564483165741}, 
            {0.059099454432725906, 0.14438293874263763, 0.003473810385912657, 0.11406433582305908, 0.004628004506230354}
        }, 
        {
            {0.08909180760383606, 0.022447623312473297, 0.07772495597600937, -0.09448105841875076, -0.02123131975531578}, 
            {-0.01211001630872488, 0.0529443584382534, -0.0034210863523185253, -0.0039005575235933065, -0.08620455116033554}, 
            {-0.05265218764543533, -0.024667879566550255, 0.022080013528466225, 0.026340078562498093, 0.022434381768107414}, 
            {-0.03517346456646919, -0.049003563821315765, -0.07524459064006805, -0.02541530504822731, -0.023883787915110588}, 
            {0.018665701150894165, -0.032099105417728424, -0.07889621704816818, -0.02717549167573452, -0.12245946377515793}
        }, 
        {
            {0.024448318406939507, -0.10884065181016922, -0.14070969820022583, -0.055865947157144547, 0.08262491971254349}, 
            {-0.009320276789367199, -0.1401730477809906, 0.022551212459802628, 0.12442846596240997, -0.04890181124210358}, 
            {-0.14873184263706207, 0.020476041361689568, 0.16446010768413544, 0.05368027836084366, 0.022392302751541138}, 
            {0.09032202512025833, 0.09840605407953262, 0.028544124215841293, -0.12036234140396118, -0.16046452522277832}, 
            {-0.021322820335626602, -0.04171329736709595, -0.22602199018001556, -0.14615418016910553, -0.07074052840471268}
        }, 
        {
            {0.08285026997327805, 0.14851394295692444, 0.06794736534357071, -0.03340068832039833, 0.0386306568980217}, 
            {0.11093372851610184, 0.04724843055009842, -0.081593357026577, -0.10104870051145554, -0.11278719455003738}, 
            {0.13985423743724823, 0.04330942779779434, -0.10691532492637634, 0.02098820172250271, 0.018803192302584648}, 
            {-0.05467004328966141, -0.06704073399305344, -0.0388757698237896, 0.01954379491508007, -0.03302953019738197}, 
            {-0.046064168214797974, -0.05188579857349396, -0.014956497587263584, 0.054997798055410385, -0.026905884966254234}
        }, 
        {
            {-0.11416199058294296, 0.08216529339551926, 0.0343659333884716, 0.009706523269414902, -0.07923045009374619}, 
            {0.028408939018845558, 0.131175696849823, 0.019507260993123055, -0.04814410209655762, -0.12016791850328445}, 
            {0.12869374454021454, 0.010328084230422974, 0.00039140504668466747, -0.042083997279405594, 0.02969515696167946}, 
            {0.031885065138339996, 0.011608285829424858, -0.07549861818552017, 0.04579124227166176, 0.012526414357125759}, 
            {-0.011499355547130108, -0.14082936942577362, -0.11160679906606674, -0.04623250290751457, -0.05134067311882973}
        }, 
        {
            {-0.17695891857147217, 0.061876822263002396, 0.04327842593193054, 0.09203982353210449, 0.013872171752154827}, 
            {-0.06469030678272247, 0.09179063886404037, 0.17145681381225586, 0.05207517370581627, -0.1586669236421585}, 
            {0.13930737972259521, 0.1625000685453415, 0.0776473730802536, -0.0875559076666832, -0.10171226412057877}, 
            {0.19104014337062836, 0.1472236067056656, -0.06558433175086975, -0.034139469265937805, -0.06514554470777512}, 
            {0.007001868914812803, -0.14997634291648865, -0.08405989408493042, -0.008822859264910221, -0.0801837146282196}
        }
    }, 
    {
        {
            {0.04262927919626236, -0.07422910630702972, -0.12592624127864838, -0.17989572882652283, -0.09545479714870453}, 
            {0.01112839113920927, 0.0031784959137439728, -0.03436672315001488, 0.02460119128227234, 0.07022339105606079}, 
            {0.1395834982395172, 0.1064053475856781, 0.16318197548389435, 0.12556956708431244, 0.16737669706344604}, 
            {0.12586815655231476, 0.18371891975402832, 0.052936337888240814, 0.24345412850379944, 0.04716243967413902},
            {0.006042771972715855, -0.04824329912662506, 0.05067498981952667, 0.06760209053754807, 0.08565826714038849}
        },
        { 
            {0.018774917349219322, -0.12955303490161896, -0.049075037240982056, -0.0734429880976677, -0.019113559275865555}, 
            {0.1385589838027954, 0.07752994447946548, 0.013694196939468384, -0.11899232864379883, -0.16713471710681915}, 
            {0.07423549890518188, 0.03800324350595474, -0.052381228655576706, -0.10335881263017654, -0.004872418940067291}, 
            {-0.03293895348906517, -0.16250114142894745, -0.11001899838447571, 0.09291700273752213, 0.10513462871313095}, 
            {-0.06880414485931396, -0.12728378176689148, -0.1695510745048523, 0.12935522198677063, 0.08462072908878326}
        }, 
        {
            {-0.008195965550839901, -0.018707985058426857, -0.02923700027167797, -0.042821481823921204, -0.0677298828959465}, 
            {-0.014934150502085686, -0.09990796446800232, -0.166004478931427, -0.12011944502592087, -0.1256653219461441}, 
            {-0.05260255187749863, 0.0558098629117012, -0.043970171362161636, -0.09782259166240692, -0.13755689561367035}, 
            {0.14389774203300476, 0.11575371772050858, 0.10303083062171936, -0.011682728305459023, 0.013797438703477383}, 
            {0.01382871251553297, 0.061301425099372864, 0.10621857643127441, -0.001839661505073309, -0.0828535407781601}
        }, 
        {
            {0.029860129579901695, -0.011813285760581493, 0.046948619186878204, 0.13683052361011505, 0.04090914875268936}, 
            {0.12759600579738617, 0.10258030891418457, 0.1417684704065323, 0.14470718801021576, 0.10867626965045929}, 
            {0.11836738884449005, 0.07488489151000977, -0.0366656668484211, 0.07200325280427933, 0.18713627755641937}, 
            {-0.06046895682811737, -0.006506342440843582, -0.1677764505147934, -0.0025208222214132547, 0.12167254835367203}, 
            {-0.14122647047042847, -0.06947502493858337, -0.11171555519104004, -0.004575161729007959, -0.002150353044271469}
        }, 
        {
            {-0.0011149289784952998, 0.07706062495708466, -0.06708572804927826, 0.05406659096479416, 0.20463815331459045}, 
            {-0.02465258166193962, -0.028419293463230133, 0.025204187259078026, 0.023127367720007896, 0.09420659393072128}, 
            {0.09397256374359131, -0.013370387256145477, -0.017803585156798363, 0.06621918827295303, 0.07190709561109543}, 
            {-0.06329026073217392, -0.035707879811525345, -0.13674771785736084, -0.08100154995918274, 0.08880247175693512}, 
            {-0.08933985233306885, 0.00914238765835762, -0.08922427892684937, -0.16782502830028534, 0.07221636921167374}
        }, 
        {
            {0.004374993033707142, -0.004541209898889065, 0.030632084235548973, -0.008948489092290401, 0.08366192132234573}, 
            {-0.048454537987709045, -0.04833543673157692, -0.08895895630121231, -0.06778692454099655, 0.07585956901311874}, 
            {-0.022548500448465347, -0.09369226545095444, 0.004088536836206913, -0.04877728223800659, 0.14577998220920563}, 
            {-0.036786992102861404, 0.04661932960152626, 0.01046618353575468, -0.06860023736953735, -0.03329159691929817}, 
            {0.013339264318346977, 0.05493198707699776, -0.05258576199412346, -0.054492514580488205, 0.028017643839120865}
        }
    }, 
    {
        {
            {0.15497379004955292, 0.13362263143062592, 0.2612304091453552, 0.2674368619918823, 0.3002660870552063}, 
            {0.27571901679039, 0.22726041078567505, 0.29397380352020264, 0.24557411670684814, 0.27472618222236633}, 
            {0.21395213901996613, 0.2135271430015564, 0.03331360965967178, 0.17644064128398895, 0.1139574870467186}, 
            {-0.06341647356748581, -0.14354094862937927, 0.0022197754587978125, -0.08236990123987198, -0.1394212692975998}, 
            {0.06550584733486176, -0.11645081639289856, -0.052450019866228104, -0.07277341187000275, -0.253217488527298}
        }, 
        {
            {0.1533680260181427, 0.050456561148166656, 0.18309640884399414, 0.08602721244096756, -0.11052651703357697}, 
            {-0.09822523593902588, -0.08667656034231186, -0.00071780348662287, -0.004149545915424824, 0.062254566699266434}, 
            {-0.3611077666282654, -0.1757468730211258, -0.20699359476566315, -0.07336924970149994, 0.06367789208889008}, 
            {-0.12224628776311874, -0.27761879563331604, -0.2416083663702011, -0.11909528821706772, -0.06840937584638596}, 
            {0.10307105630636215, -0.05650312453508377, -0.07839559018611908, 0.009763904847204685, -0.197977676987648}
        }, 
        {
            {0.04582425206899643, 0.0674159899353981, -0.08676749467849731, -0.06814178824424744, -0.13590183854103088}, 
            {0.05973430350422859, 0.15522685647010803, 0.18898537755012512, 0.12782086431980133, -0.07368215173482895}, 
            {-0.01240864023566246, 0.08909603208303452, 0.11117330938577652, 0.04753708466887474, -0.0564873032271862}, 
            {-0.13435199856758118, -0.13120083510875702, 0.017996065318584442, 0.10978886485099792, 0.14068977534770966}, 
            {-0.01821303926408291, 0.04135557636618614, -0.03939981013536453, -0.060669124126434326, 0.04360165074467659}
        }, 
        {
            {0.11772511154413223, 0.1853152960538864, 0.0672067403793335, 0.10065233707427979, 0.15429356694221497}, 
            {-0.03445235639810562, -0.09365161508321762, -0.11848066002130508, -0.05668516084551811, 0.04989917576313019}, 
            {-0.22913970053195953, -0.0959191843867302, -0.16738088428974152, -0.17185524106025696, -0.04108662158250809}, 
            {0.15024910867214203, -0.05660569667816162, 0.0022632842883467674, -0.1461327224969864, -0.07306524366140366}, 
            {0.23229177296161652, 0.12887412309646606, 0.18602317571640015, 0.13282927870750427, 0.028269968926906586}
        }, 
        {
            {0.025935322046279907, 0.1779233068227768, 0.21420899033546448, 0.009515080600976944, -0.03093680739402771}, 
            {0.006446382496505976, -0.08555547893047333, -0.05828416347503662, 0.06071378290653229, -0.013464508578181267}, 
            {-0.07582641392946243, -0.20945490896701813, -0.16026896238327026, -0.013785195536911488, -0.04890279471874237}, 
            {0.06894953548908234, -0.03181491792201996, 0.04608238488435745, -0.061798494309186935, -0.06099484860897064}, 
            {0.15375101566314697, 0.06294414401054382, 0.16036894917488098, 0.12935060262680054, 0.028294263407588005}
        }, 
        {
            {-0.049718182533979416, -0.010763777419924736, -0.07520546764135361, -0.08102170377969742, -0.06665749847888947}, 
            {-0.0959882140159607, -0.07958199083805084, -0.005842959973961115, -0.05480627343058586, -0.1013108566403389}, 
            {-0.11463689804077148, -0.11310548335313797, -0.30502206087112427, -0.22184894979000092, 0.017210420221090317}, 
            {-0.11799249053001404, -0.010177850723266602, -0.06503558158874512, -0.14887508749961853, -0.10618527233600616}, 
            {-0.06564007699489594, -0.01673806458711624, 0.019164633005857468, 0.08303994685411453, -0.010058315470814705}
        }
    }, 
    {
        {
            {-0.09569407254457474, 0.03958321362733841, -0.08037261664867401, -0.024928126484155655, -0.05331536754965782}, 
            {0.14884936809539795, 0.20975039899349213, 0.14353030920028687, 0.24012504518032074, 0.09091392904520035}, 
            {0.1468912810087204, 0.14489814639091492, 0.20508036017417908, 0.2893957793712616, 0.2089124470949173}, 
            {0.13241910934448242, 0.062139835208654404, 0.04405488073825836, 0.09566202759742737, 0.11035943031311035}, 
            {-0.049786027520895004, -0.17357800900936127, -0.10884477198123932, -0.18003736436367035, -0.10471082478761673}
        }, 
        {
            {0.03344586864113808, 0.09166697412729263, -0.08237148821353912, -0.03669996187090874, -0.0523076131939888}, 
            {0.19269120693206787, 0.06744124740362167, -0.04814012721180916, -0.07231803983449936, 0.052135974168777466}, 
            {0.03752519190311432, -0.009623227640986443, -0.1170809268951416, -0.016108715906739235, -0.014713075943291187}, 
            {-0.1311752200126648, -0.21896348893642426, -0.08681908994913101, -0.06979142129421234, -0.0960434153676033}, 
            {-0.07389416545629501, -0.013722855597734451, -0.025274895131587982, 0.04393818601965904, -0.08440106362104416}
        }, 
        {
            {-0.08142399787902832, -0.016530372202396393, -0.1437257081270218, -0.21659457683563232, -0.22046469151973724}, 
            {-0.11184672266244888, -0.12037941813468933, -0.08517731726169586, -0.20092666149139404, -0.2684202194213867}, 
            {0.012609584257006645, 0.17819856107234955, 0.11516634374856949, -0.07857812196016312, -0.25514474511146545}, 
            {0.12756413221359253, 0.23644417524337769, 0.20310840010643005, -0.06527329236268997, -0.09006039798259735}, 
            {0.0982801616191864, 0.06854654103517532, 0.12268300354480743, 0.03472418338060379, -0.015711326152086258}
        }, 
        {
            {0.15094339847564697, 0.0633794441819191, 0.1676497608423233, 0.14336742460727692, 0.15480323135852814}, 
            {0.13570429384708405, 0.03951200842857361, 0.02755654603242874, 0.13234971463680267, 0.043115340173244476}, 
            {0.061753708869218826, -0.04464498907327652, 0.0021089587826281786, 0.06928770989179611, 0.006635568104684353}, 
            {-0.1435341089963913, -0.1552857607603073, -0.11399424076080322, -0.12618105113506317, 0.012441731058061123}, 
            {-0.10299043357372284, -6.321945693343878e-05, 0.056771740317344666, -0.025711147114634514, 0.030979644507169724}
        }, 
        {
            {0.05440405756235123, -0.002372956834733486, 0.10501129925251007, 0.13652782142162323, 0.09753407537937164}, 
            {0.06833937019109726, 0.13218052685260773, -0.00943854171782732, 0.041685447096824646, -0.0009238499915227294}, 
            {0.0250286515802145, 0.03440180420875549, -0.08299071341753006, -0.1156870424747467, -0.09926122426986694}, 
            {0.050812654197216034, 0.029572661966085434, -0.11164451390504837, -0.06321146339178085, -0.04044753685593605}, 
            {0.004846612457185984, -0.07652400434017181, -0.007097339257597923, -0.04070182889699936, 0.045570503920316696}
        }, 
        {
            {-0.08813775330781937, -0.07603064179420471, 0.04157634079456329, 0.1082964688539505, 0.031030237674713135}, 
            {-0.10032220929861069, -0.04355595260858536, -0.07828083634376526, 0.0234103761613369, 0.027603523805737495}, 
            {-0.0852719321846962, 0.02907913364470005, -0.13884545862674713, -0.15452784299850464, -0.03890126943588257}, 
            {0.052713148295879364, -0.027523336932063103, -0.11709669232368469, -0.1549530178308487, -0.0523509755730629}, 
            {0.020787788555026054, 0.07971395552158356, -0.11879240721464157, 0.04797913506627083, -0.022648105397820473}
        }
    }, 
    {
        {
            {-0.21120187640190125, -0.22182510793209076, -0.15346287190914154, 0.043908581137657166, -0.050497498363256454}, 
            {-0.1987733244895935, -0.15316244959831238, -0.03078978881239891, -0.15841230750083923, -0.05198311805725098}, 
            {0.019371526315808296, -0.12582510709762573, -0.056639380753040314, -0.28134286403656006, -0.26045700907707214}, 
            {0.0857529565691948, 0.0011556715471670032, 0.01494196429848671, -0.11984236538410187, -0.06402230262756348}, 
            {0.1571580171585083, 0.04268554598093033, 0.10730332881212234, 0.03818991035223007, -0.05127536877989769}
        }, 
        {
            {-0.0003315734211355448, 0.19335903227329254, 0.16741642355918884, -0.03332338109612465, 0.0786471739411354}, 
            {0.08136281371116638, 0.12456531077623367, -0.0918383002281189, -0.11893364787101746, 0.0991293340921402}, 
            {0.12203279137611389, -0.03294854611158371, -0.07822271436452866, -0.1314089149236679, -0.06078504025936127}, 
            {0.015769120305776596, -0.0413951575756073, -0.173585906624794, -0.07681512087583542, -0.207783505320549}, 
            {-0.053041715174913406, -0.08274224400520325, -0.022235125303268433, -0.03349396586418152, -0.11759263277053833}
        }, 
        {
            {0.05161541700363159, -0.08395879715681076, -0.05510026589035988, 0.09261764585971832, 0.08955463021993637}, 
            {0.0065688639879226685, -0.05673368647694588, 0.018715709447860718, 0.06319685280323029, 0.06109204888343811}, 
            {0.0021865912713110447, -0.1593189388513565, -0.14807571470737457, -0.12188556045293808, -0.08281341195106506}, 
            {-0.1350020170211792, -0.1451665461063385, -0.17153702676296234, -0.22520042955875397, -0.00021033920347690582}, 
            {-0.05302705988287926, -0.07094383239746094, -0.08615992218255997, -0.0410827174782753, -0.06048376113176346}
        }, 
        {
            {0.06953181326389313, -0.016952864825725555, -0.026706494390964508, -0.18250489234924316, -0.14271339774131775}, 
            {0.06259403377771378, -0.018075574189424515, 0.008374153636395931, -0.0781097412109375, 0.06058470904827118}, 
            {0.1238144263625145, 0.1002371534705162, -0.034018468111753464, 0.06678062677383423, 0.0931791365146637}, 
            {0.05790877342224121, 0.04418295994400978, 0.07264263182878494, 0.07320991158485413, 0.10257329791784286}, 
            {-0.08625941723585129, -0.0218952763825655, 0.017765885218977928, -0.07170471549034119, -0.017536357045173645}
        }, 
        {
            {-0.06501149386167526, -0.04250239580869675, 0.09367724508047104, 0.03365975245833397, -0.030035575851798058}, 
            {0.010360749438405037, 0.042664457112550735, -0.026841845363378525, -0.09128088504076004, 0.04834512621164322}, 
            {0.03344300761818886, -0.0021758941002190113, 0.016448503360152245, -0.021127594634890556, 0.009702665731310844}, 
            {0.004869482014328241, -0.01116118859499693, 0.05316299572587013, 0.05074448883533478, 0.04476775974035263}, 
            {-0.023176180198788643, -0.004176745191216469, -0.10879726707935333, -0.09015505015850067, -0.015157355926930904}
        }, 
        {
            {0.12350857257843018, 0.055312953889369965, 0.11961151659488678, 0.18732936680316925, 0.04651246964931488}, 
            {0.18311995267868042, 0.19306893646717072, 0.1653909683227539, 0.08543598651885986, 0.046810735017061234}, 
            {0.041676249355077744, 0.15189096331596375, 0.020373594015836716, -0.04100530222058296, -0.018329806625843048}, 
            {-0.09029346704483032, 0.024202153086662292, -0.16245301067829132, 0.02415923960506916, 0.07144863903522491}, 
            {-0.09659665077924728, -0.13401703536510468, -0.1046273484826088, -0.04227849468588829, 0.028647620230913162}
        }
    }, 
    {
        {
            {-0.08643697947263718, 0.1404699981212616, 0.0845612958073616, 0.04217872768640518, -0.07190733402967453}, 
            {-0.16704346239566803, 0.0167591143399477, 0.005123629700392485, 0.007924443110823631, -0.03792526200413704}, 
            {-0.14546631276607513, -0.11405311524868011, -0.09743831306695938, -0.13557204604148865, -0.17618656158447266}, 
            {-0.1040813997387886, -0.06093376502394676, -0.0330328531563282, -0.10655021667480469, 0.010437932796776295}, 
            {-0.09708575904369354, -0.14695076644420624, -0.0753602534532547, -0.08031512796878815, -0.037517767399549484}
        }, 
        {
            {0.03817969933152199, -0.04332399368286133, 0.1528753638267517, 0.16272155940532684, -0.046374838799238205}, 
            {-0.060434501618146896, 0.05003852769732475, 0.14727337658405304, 0.14614459872245789, 0.2231326550245285}, 
            {0.08978904783725739, 0.14346690475940704, 0.08628430217504501, 0.2251514345407486, 0.23021388053894043}, 
            {0.1254907101392746, 0.06538180261850357, 0.09513874351978302, 0.2158290594816208, 0.17513494193553925}, 
            {0.2141028195619583, 0.054371003061532974, 0.24220801889896393, 0.20761506259441376, 0.15771445631980896}
        }, 
        {
            {-0.09200861304998398, 0.19490863382816315, 0.05484429746866226, 0.03783541917800903, 0.10310357064008713}, 
            {0.1184517964720726, 0.21728208661079407, 0.0998658612370491, 0.09514371305704117, 0.022964270785450935}, 
            {0.16837482154369354, 0.07138870656490326, 0.07118210196495056, -0.02130160853266716, -0.021234141662716866}, 
            {0.2579655647277832, 0.14059694111347198, 0.1304885596036911, 0.05386107414960861, 0.08087378740310669}, 
            {0.18710511922836304, 0.15881788730621338, 0.08552923798561096, -0.008761546574532986, 0.09698463976383209}
        }, 
        {
            {0.05378635600209236, 0.056167010217905045, -0.09200163930654526, -0.20566219091415405, -0.19307950139045715}, 
            {0.06503559648990631, -0.07275284826755524, -0.09668129682540894, -0.26263266801834106, -0.10663250088691711}, 
            {0.15236800909042358, -0.11178560554981232, -0.1844055950641632, -0.21941635012626648, -0.08966267853975296}, 
            {0.019852837547659874, 0.011096908710896969, -0.1907031387090683, -0.18755470216274261, -0.08853207528591156}, 
            {0.08868981897830963, -0.050376784056425095, -0.21700513362884521, -0.09103286266326904, 0.00909851212054491}
        }, 
        {
            {0.128805011510849, -0.019862841814756393, -0.024702128022909164, 0.04357593134045601, -0.11287043988704681}, 
            {0.09236694872379303, 0.05917289853096008, -0.08533433824777603, -0.11796045303344727, -0.16049474477767944}, 
            {0.039202217012643814, -0.002677293261513114, -0.12808316946029663, -0.14525915682315826, -0.08087324351072311}, 
            {0.022865554317831993, 0.053818508982658386, -0.10389938205480576, -0.23381327092647552, 0.005175883881747723}, 
            {0.05906570330262184, 0.0532514862716198, -0.17491589486598969, -0.1437000334262848, 0.1151810809969902}
        }, 
        {
            {0.118623286485672, 0.03853871673345566, -0.03376663476228714, 0.06427294760942459, 0.002111558336764574}, 
            {0.20996853709220886, 0.10594192892313004, 0.04533541947603226, -0.09866584092378616, -0.15309491753578186}, 
            {0.21825814247131348, 0.10413897037506104, 0.007981028407812119, -0.2602593004703522, -0.23813749849796295}, 
            {0.13229334354400635, 0.12863929569721222, -0.013303444720804691, -0.25963011384010315, -0.04448159039020538}, 
            {0.12559209764003754, -0.006414575502276421, -0.09655443578958511, -0.14962047338485718, 0.061724454164505005}
        }
    }, 
    {
        {
            {-0.19338901340961456, -0.16775010526180267, -0.07567620277404785, -0.1767634004354477, -0.09418880939483643}, 
            {-0.008262588642537594, -0.044709306210279465, -0.19133040308952332, -0.0918051153421402, 0.02680250257253647}, 
            {0.12365105748176575, -0.005493012722581625, -0.1870528906583786, -0.22949571907520294, 0.08218695223331451}, 
            {0.020711088553071022, -0.08646567910909653, -0.20655743777751923, -0.16791029274463654, 0.009245561435818672}, 
            {-0.024438591673970222, -0.16474580764770508, -0.1792067587375641, -0.22739218175411224, 0.009781337343156338}
        }, 
        {
            {0.010661013424396515, -0.057902466505765915, -0.08095866441726685, -0.09673160314559937, -0.0740051418542862}, 
            {-0.046168070286512375, -0.009397486224770546, -0.01039252057671547, -0.06326282769441605, 0.0942971333861351}, 
            {-0.047255948185920715, -0.004293540492653847, 0.1560172438621521, 0.07406214624643326, 0.041587959975004196}, 
            {-0.12741073966026306, 0.17148926854133606, 0.07432977110147476, 0.015067730098962784, -0.018847458064556122}, 
            {-0.015479453839361668, 0.0637112483382225, 0.27744564414024353, -0.1570020318031311, -0.04918526113033295}
        }, 
        {
            {-0.07538577169179916, -0.03533047437667847, -0.020686481148004532, -0.11432355642318726, -0.09181148558855057}, 
            {0.014123043045401573, -0.14227040112018585, -0.017864542081952095, -0.04258556291460991, -0.11357549577951431}, 
            {-0.017653824761509895, 0.023665066808462143, -0.1731003075838089, -0.09464181214570999, 0.0361243300139904}, 
            {-0.11361914128065109, -0.1154593899846077, -0.06152253597974777, -0.06211340054869652, 0.05576009303331375}, 
            {-0.002323741326108575, -0.02807305008172989, -0.12916401028633118, 0.07237580418586731, 0.06176712363958359}
        }, 
        {
            {0.03116821125149727, 0.025439614430069923, -0.019471818581223488, 0.07406788319349289, -0.13433706760406494}, 
            {-0.05080508068203926, 0.013485045172274113, 0.11845459789037704, 0.10886188596487045, -0.017737140879034996}, 
            {-0.039306096732616425, 0.11350920796394348, 0.07572109252214432, 0.11449239403009415, 0.008844511583447456}, 
            {-0.02064196579158306, 0.08167143911123276, 0.04236847907304764, 0.020715784281492233, -0.201324000954628}, 
            {-0.022452544420957565, 0.11213742196559906, 0.1316601037979126, 0.057451166212558746, -0.16559258103370667}
        }, 
        {
            {-0.020549116656184196, 0.027546485885977745, -0.06876014173030853, 0.019999288022518158, -0.05507223680615425}, 
            {-0.13216234743595123, -0.03802148252725601, -0.021328259259462357, 0.12418778240680695, 0.05002943053841591}, 
            {-0.1055411845445633, -0.1705692708492279, 0.016314759850502014, 0.09796235710382462, 0.029509490355849266}, 
            {-0.11597287654876709, -0.03692011162638664, 0.051879752427339554, 0.18735308945178986, -0.06293399631977081}, 
            {-0.11275436729192734, 0.016463441774249077, 0.15856976807117462, 0.13155314326286316, -0.19066624343395233}
        }, 
        {
            {0.008811858482658863, -0.026837030425667763, -0.004444394260644913, 0.08147699385881424, -0.014183997176587582}, 
            {-0.1371302753686905, -0.09095849841833115, -0.03707312420010567, 0.13008520007133484, -0.020399680361151695}, 
            {-0.09904491156339645, -0.2172866314649582, -0.10450603067874908, 0.0662478432059288, 0.01764107681810856}, 
            {-0.264810711145401, -0.12004876881837845, 0.04816916212439537, 0.21341253817081451, 0.051322124898433685}, 
            {-0.2774715721607208, -0.1529504507780075, 0.16452431678771973, 0.24782337248325348, 0.031818125396966934}
        }
    }, 
    {
        {
            {-0.0259409137070179, -0.18060579895973206, -0.17702864110469818, 0.028506673872470856, 0.07914590835571289}, 
            {0.036444906145334244, -0.02232367917895317, -0.2557778060436249, -0.1115882396697998, -0.03771393373608589}, 
            {-0.15905487537384033, -0.10601652413606644, -0.23157382011413574, -0.13040617108345032, -0.08325054496526718}, 
            {-0.03665554150938988, -0.014549502171576023, -0.07785698771476746, -0.0425732284784317, -0.04314939305186272}, 
            {-0.06494999676942825, 0.08204588294029236, -0.05220983922481537, -0.12149374186992645, -0.09471718221902847}
        }, 
        {
            {0.16949787735939026, 0.17927218973636627, 0.004626202862709761, -0.05704391747713089, -0.04973101615905762}, 
            {0.15761035680770874, 0.27223461866378784, 0.03986780717968941, -0.19132894277572632, -0.027078911662101746}, 
            {0.1717495322227478, 0.31032899022102356, 0.015646209940314293, -0.20946498215198517, 0.11424243450164795}, 
            {0.04707847908139229, 0.22273631393909454, 0.17255455255508423, 0.0055860597640275955, 0.12257690727710724}, 
            {0.03171803429722786, 0.2390522062778473, 0.21139812469482422, 0.08372364193201065, 0.023148976266384125}
        }, 
        {
            {0.10150296241044998, -0.03969217836856842, -0.11994101107120514, 0.04496798291802406, 0.028703171759843826}, 
            {0.06601554155349731, 0.029462354257702827, -0.12708087265491486, 0.05834323540329933, -0.00020831117581110448}, 
            {0.21542568504810333, -0.11043712496757507, -0.06225407496094704, 0.0428517647087574, 0.059556994587183}, 
            {0.083871029317379, -0.0210555586963892, -0.14609020948410034, -0.015929974615573883, 0.020082218572497368}, 
            {0.09535009413957596, 0.014161956496536732, -0.15751005709171295, -0.03704635426402092, -0.08330527693033218}
        }, 
        {
            {-0.17021670937538147, 0.05643201619386673, 0.08153185248374939, -0.10288514196872711, -0.17449158430099487}, 
            {-0.21786272525787354, 0.02541901171207428, 0.04142390936613083, -0.08804688602685928, -0.19191227853298187}, 
            {-0.19151128828525543, 0.06559553742408752, 0.09147504717111588, 0.028292730450630188, -0.18447986245155334}, 
            {-0.18941925466060638, 0.01402623113244772, 0.11386250704526901, -0.03801476210355759, -0.030786927789449692}, 
            {-0.06459768861532211, -0.07858525961637497, -0.007878466509282589, 0.09987803548574448, -0.04864748939871788}
        }, 
        {
            {-0.2213655412197113, -0.0784171000123024, 0.11918254941701889, 0.05106262117624283, -0.12410944700241089}, 
            {-0.266149640083313, -0.04424310848116875, 0.1913464367389679, 0.0022465819492936134, -0.05255880579352379}, 
            {-0.1645483672618866, -0.09010735154151917, 0.06143984943628311, -0.00949078518897295, -0.20557688176631927}, 
            {-0.12377406656742096, -0.05956044793128967, 0.1352892369031906, 0.05730816349387169, -0.13386763632297516}, 
            {-0.08180881291627884, -0.06756489723920822, 0.07667000591754913, -0.01856444776058197, -0.05076432228088379}
        }, 
        {
            {-0.0804489329457283, -0.0789608433842659, 0.10770723968744278, 0.10972388088703156, -0.11799942702054977}, 
            {-0.060263510793447495, -0.131032332777977, 0.1961735486984253, 0.1032269224524498, -0.1026594415307045}, 
            {-0.1248449832201004, -0.08762326091527939, 0.18465256690979004, 0.15812191367149353, -0.037974294275045395}, 
            {-0.16780893504619598, -0.11650075018405914, 0.13985653221607208, 0.12791642546653748, 0.004650054033845663}, 
            {-0.1729905903339386, -0.04511628299951553, 0.048431698232889175, 0.02620675414800644, 0.11564061045646667}
        },
    },
    {
        {
            {0.007965544238686562, -0.1013236939907074, -0.01612560823559761, -0.10434222966432571, -0.18321670591831207}, 
            {-0.0021244403906166553, 0.0053588892333209515, 0.193966805934906, 0.24025586247444153, 0.24376219511032104}, 
            {-0.17703577876091003, -0.06864587217569351, 0.1210772916674614, 0.23947203159332275, 0.33395370841026306}, 
            {-0.010006571188569069, -0.1055135652422905, -0.09760165959596634, -0.003448235336691141, -0.0747077539563179}, 
            {0.06549452990293503, 0.01937146857380867, 0.004896848928183317, -0.19813069701194763, -0.20590408146381378}
        }, 
        {
            {0.05487775430083275, -0.04217307269573212, 0.11623618006706238, 0.19764700531959534, 0.19941562414169312}, 
            {-0.02856442518532276, -0.07991155236959457, -0.05316481739282608, 0.24351370334625244, 0.20035120844841003}, 
            {0.004353412427008152, -0.03923307731747627, -0.15220749378204346, 0.07203986495733261, 0.1297702193260193}, 
            {0.004097036086022854, -0.14383938908576965, -0.10537896305322647, -0.05184393748641014, -0.05519159510731697}, 
            {0.029423121362924576, -0.01536229345947504, 0.10548631101846695, 0.01896011084318161, -0.03125656768679619}
        }, 
        {
            {0.11066920310258865, 0.05728718638420105, 0.1572495698928833, 0.22482189536094666, 0.0701235979795456}, 
            {0.15931832790374756, 0.0572807714343071, 0.18819235265254974, 0.0676753893494606, 0.04676387831568718}, 
            {0.07154977321624756, -0.0536012202501297, 0.036561429500579834, -0.09256886690855026, -0.021782292053103447}, 
            {-0.10878729820251465, -0.038524892181158066, -0.20532387495040894, -0.13791339099407196, -0.03937273100018501}, 
            {-0.040909163653850555, -0.08702483028173447, -0.22829127311706543, -0.16577714681625366, -0.12507589161396027}
        }, 
        {
            {-0.016159825026988983, -0.040272053331136703, -0.038107238709926605, 0.031026113778352737, 0.046938519924879074}, 
            {-0.02787255309522152, -0.08441568166017532, -0.16542638838291168, 0.012829129584133625, 0.07198286056518555}, 
            {0.005658130161464214, -0.06334009021520615, -0.09625244140625, -0.1906193494796753, -0.11786939203739166}, 
            {0.13578090071678162, 0.0848168134689331, 0.040969979017972946, -0.0830463245511055, -0.08314797282218933}, 
            {0.1396212875843048, 0.16771304607391357, 0.18730133771896362, 0.07650710642337799, 0.02800883539021015}
        }, 
        {
            {-0.06858257949352264, 0.07306104153394699, -0.05134707689285278, -0.1316552609205246, 0.053042542189359665}, 
            {-0.01266468409448862, -0.061160407960414886, -0.12762713432312012, -0.1717667579650879, -0.06536149233579636}, 
            {-0.052135538309812546, 0.021686997264623642, 0.03459370508790016, -0.1185193732380867, -0.035359956324100494}, 
            {0.06957575678825378, 0.09404303133487701, 0.07516579329967499, 0.09570329636335373, 0.012117968872189522}, 
            {0.09782231599092484, -0.024300267919898033, 0.007923917844891548, 0.07382076978683472, 0.1431029736995697}
        }, 
        {
            {-0.00520407035946846, 0.16379256546497345, 0.09335339814424515, -0.05891101062297821, 0.07146858423948288}, 
            {0.09714186191558838, 0.0722600668668747, 0.0458921454846859, -0.13439582288265228, -0.13373133540153503}, 
            {-0.11471201479434967, 0.0668763816356659, 0.02222372591495514, -0.00932183489203453, -0.058357834815979004}, 
            {-0.08712325245141983, -0.010464574210345745, 0.10545672476291656, 0.04646426439285278, -0.09636211395263672}, 
            {-0.09622703492641449, -0.06625095009803772, 0.0251743346452713, -0.00922146625816822, 0.04878707230091095}
        }
    }
};

const float weights_F1[120][400] = {
    {-0.05145861953496933, -0.0250468160957098, -0.057242847979068756, -0.04415842145681381, 0.010996963828802109, -0.013012710958719254, -0.06679946929216385, -0.0778280720114708, -0.10700049251317978, -0.0068098995834589005, -0.08932080119848251, -0.09769093245267868, -0.05825379118323326, -0.1228272095322609, -0.015302084386348724, -0.11360925436019897, -0.05780140683054924, -0.0466940775513649, -0.03404858708381653, -0.07726351916790009, -0.06495889276266098, -0.034937188029289246, -0.046889450401067734, -0.07263343036174774, -0.11222614347934723, -0.10431694984436035, -0.0520012304186821, 0.002912055002525449, -0.0886131003499031, -0.011308854445815086, -0.04142805561423302, -0.004871999844908714, -0.0326959453523159, -0.061429817229509354, -0.061969731003046036, -0.07988129556179047, -0.043555647134780884, -0.010819110088050365, -0.076533742249012, -0.08560050278902054, -0.08026107400655746, -0.03761724382638931, -0.07750902324914932, -0.02514835074543953, -0.06409837305545807, -0.034112196415662766, -0.09328660368919373, -0.02637305110692978, -0.01604304648935795, -0.026987288147211075, -0.06619061529636383, -0.050946399569511414, -0.0506720095872879, -0.05218959227204323, -0.07923565804958344, 0.0021902373991906643, -0.03016556054353714, -0.00057080207625404, -0.08515511453151703, -0.03635279834270477, -0.04204807057976723, -0.04606831818819046, -0.007431112229824066, -0.10505084693431854, -0.03257342800498009, -0.02081572264432907, -0.014618839137256145, 0.028238719329237938, -0.08969014137983322, -0.06527122855186462, 0.00276935868896544, 0.009238213300704956, -0.05816277116537094, -0.10484769195318222, -0.041309889405965805, 0.018093915656208992, -0.05118470638990402, -0.12171158939599991, -0.12425067275762558, -0.07297252118587494, 0.024123603478074074, -0.03628471493721008, -0.10620264708995819, -0.051195114850997925, -0.04918377846479416, -0.03858223930001259, -0.0387960709631443, -0.07098978757858276, -0.1153523251414299, -0.042296744883060455, -0.06836884468793869, -0.013940591365098953, -0.10425755381584167, -0.04818177595734596, 0.024717207998037338, 0.012421073392033577, -0.003929635509848595, -0.07591239362955093, -0.06479469686746597, -0.03215637058019638, 0.012259488925337791, 0.03284461051225662, -0.1193743348121643, -0.09455476701259613, -0.009104286320507526, 0.01915694959461689, 0.01815835013985634, -0.07183559983968735, -0.08760181814432144, 0.002632072428241372, -0.016726067289710045, -0.018316345289349556, -0.08195619285106659, -0.04562710225582123, -0.007074002176523209, -0.02648405358195305, -0.019793694838881493, -0.06739388406276703, -0.07549583911895752, 0.0014051201287657022, -0.06633036583662033, -0.060555651783943176, -0.06679774075746536, -0.09103141725063324, 0.013593384996056557, 0.006438106764107943, -0.07115332037210464, 0.004643366672098637, -0.1116282045841217, -0.10120277851819992, 0.02192540653049946, -0.008484378457069397, -0.036277566105127335, -0.09959850460290909, -0.044998496770858765, -0.0004210988699924201, -0.023487132042646408, -0.03048050031065941, -0.07815532386302948, -0.06155059114098549, -0.05407310277223587, -0.0393240861594677, -0.011593136936426163, -0.11032702028751373, -0.03277396410703659, 0.08746796101331711, 0.0945853739976883, 0.06574562937021255, -0.09519890695810318, -0.005971505772322416, -0.013200373388826847, -0.016466034576296806, -0.09543619304895401, 0.01307674404233694, -0.037481535226106644, 0.10115178674459457, -0.022379441186785698, -0.020612632855772972, 0.08892599493265152, 0.07644293457269669, 0.09594079107046127, -0.031720828264951706, -0.03931313380599022, 0.04518831521272659, 0.07177399098873138, 0.09244187921285629, 0.02566699869930744, -0.03985753282904625, 0.10831546038389206, 0.09083863347768784, 0.10037469118833542, -0.07118231058120728, -0.08755635470151901, 0.07079385221004486, 0.0928400382399559, 0.05230467766523361, -0.10643582791090012, -0.029710521921515465, -0.11826901882886887, -0.0796656683087349, 0.02887488342821598, -0.003725979244336486, 0.014399233274161816, -0.10706359148025513, 0.04575135186314583, 0.0582205131649971, -0.07433890551328659, -0.05846310779452324, -0.07255233824253082, 0.04243714362382889, 0.001903644180856645, -0.07673191279172897, -0.11946097761392593, -0.06164282560348511, 0.026474574580788612, -0.056146927177906036, -0.05523504316806793, -0.1154167428612709, -0.07280233502388, -0.050446026027202606, -0.005603277124464512, -0.029230080544948578, -0.06240268424153328, 0.004118232522159815, 0.030017651617527008, 0.07759648561477661, -0.02073526196181774, 0.029617764055728912, -0.07369305193424225, 0.004669949412345886, 0.04953745752573013, -0.05262746289372444, -0.10236099362373352, -0.09452947974205017, -0.015451089479029179, 0.0352381095290184, -0.07368042320013046, -0.10020705312490463, -0.022735629230737686, 0.07771656662225723, 0.01675323024392128, -0.1107068881392479, -0.10351057350635529, -0.09419655799865723, 0.030723506584763527, -0.0017276277067139745, 0.042848486453294754, -0.09928694367408752, -0.013984867371618748, 0.05451950803399086, 0.07891836017370224, 0.08416847139596939, 0.07220064103603363, -0.04269130900502205, 0.05257154256105423, 0.02403915673494339, 0.10285644978284836, 0.0616610087454319, -0.06984362751245499, 0.09739138185977936, 0.03488167002797127, 0.03146746754646301, 0.06314700841903687, -0.040192876011133194, 0.040976185351610184, 0.051827557384967804, 0.030413448810577393, -0.10618952661752701, -0.02592938207089901, 0.028036002069711685, 0.008890064433217049, -0.06184562295675278, -0.06494293361902237, -0.042817674577236176, -0.03154010698199272, 0.0462997741997242, -0.09232905507087708, -0.04478360712528229, -0.0460030697286129, -0.08977900445461273, -0.008518937975168228, -0.04481744021177292, -0.0906868502497673, -0.0682346299290657, -0.0010162462713196874, 0.00923051405698061, -0.06229161098599434, -0.06545140594244003, -0.09056621789932251, 0.026924679055809975, -0.002048867056146264, -0.10732404887676239, -0.05159120634198189, -0.037174686789512634, 0.008358119986951351, -0.0240184273570776, -0.06629692018032074, 0.00041282971506007016, -0.048475731164216995, 0.003013030393049121, 0.0048841265961527824, -0.029920879751443863, -0.034903451800346375, -0.10127654671669006, -0.0158687811344862, -0.06212722510099411, -0.004118417855352163, -0.03975945711135864, -0.061927638947963715, -0.027448026463389397, -0.07199931889772415, -0.06117866560816765, -0.08662503957748413, -0.04948856681585312, 0.009326554834842682, -0.07793597877025604, -0.03435058146715164, -0.07944491505622864, -0.08489014953374863, -0.057608604431152344, 0.020654797554016113, 0.03400145843625069, 0.06052226945757866, -0.10431025177240372, -0.13166804611682892, -0.019944531843066216, -0.056614164263010025, -0.002573017729446292, -0.017350126057863235, -0.10188611596822739, 0.044078316539525986, -0.025040358304977417, -0.028918836265802383, -0.09341952204704285, 0.037915173918008804, 0.03903583437204361, -0.03486563637852669, -0.034731585532426834, -0.06619191914796829, 0.037560202181339264, 0.039472796022892, -0.07830757647752762, 0.026004169136285782, -0.09206497669219971, -0.06832461059093475, -0.10580810904502869, -0.06701338291168213, -0.07571383565664291, -0.11878207325935364, -0.029309414327144623, -0.027212362736463547, -0.05357667803764343, -0.13155142962932587, -0.11581970751285553, -0.08355052769184113, -0.07998085767030716, -0.04476669430732727, -0.05149192735552788, -0.1342776119709015, -0.1130836233496666, -0.03492363169789314, -0.05446866154670715, -0.0560077428817749, -0.04515847936272621, -0.05007520690560341, -0.06491021811962128, -0.07188516855239868, -0.11149224638938904, -0.13309058547019958, -0.03294973820447922, -0.04297196865081787, 0.06278879940509796, -0.03837207704782486, -0.03957196697592735, -0.09185955673456192, -0.012196480296552181, -0.053054120391607285, -0.05116648226976395, -0.08042915910482407, -0.05083635076880455, -0.028199966996908188, -0.08689538389444351, -0.07491081207990646, -0.037294644862413406, -0.106927290558815, -0.014652413316071033, -0.07811041176319122, -0.1218133196234703, -0.020216556265950203, -0.02881976030766964, -0.06430896371603012, -0.06125526875257492, -0.005845821928232908, -0.08649194240570068, -0.09586761146783829, -0.033873822540044785, -0.07538187503814697, -0.02432708628475666, -0.09185129404067993, -0.017732637003064156, -0.06599308550357819, -0.005407403223216534, -0.042232297360897064, -0.037019915878772736, 0.0012599906185641885, -0.07746340334415436, -0.045134615153074265, -0.01748598925769329, -0.07390494644641876, -0.03153025358915329, -0.0772499218583107, -0.09809283912181854, -0.058751486241817474, -0.08948436379432678, -0.01111860666424036, -0.07914575934410095, -0.003405373776331544, -0.060916412621736526, -0.0363677442073822, -0.07805856317281723}, 
    {0.032704271376132965, -0.09723249822854996, -0.15511083602905273, -0.041808053851127625, 0.025527704507112503, -0.035038065165281296, -0.03817993775010109, 0.03164072707295418, 0.06880399584770203, -0.009056479670107365, -0.03349042311310768, -0.06564552336931229, -0.07496984302997589, -0.041061531752347946, -0.08334433287382126, 0.049338698387145996, -0.1156882718205452, -0.028019001707434654, -0.06764870882034302, -0.032877594232559204, -0.06485620886087418, -0.04390489682555199, 0.01880820468068123, -0.1057906299829483, -0.005300649907439947, -0.01977977529168129, 0.010814950801432133, -0.050791237503290176, 0.059586234390735626, -0.006896561942994595, -0.022955970838665962, 0.07943007349967957, 0.07636295258998871, 0.0217405017465353, -0.050250474363565445, -0.007193783298134804, 0.06551960855722427, -0.015181678347289562, -0.041766081005334854, -0.026589348912239075, -0.008279251866042614, -0.006439938209950924, -0.05672697350382805, -0.014019737020134926, -0.08353354036808014, -0.003014584770426154, -0.019538601860404015, -0.029936186969280243, -0.007775340229272842, -0.09255649149417877, 0.11396907269954681, -0.05374187231063843, -0.11499595642089844, 0.009439460933208466, 0.027361556887626648, -0.036261267960071564, -0.15096572041511536, -0.12260643392801285, -0.01985868252813816, 0.025525212287902832, -0.07916830480098724, -0.05759202316403389, -0.1478833705186844, -0.0855260044336319, -0.054478999227285385, 0.0570022352039814, 0.038114000111818314, -0.06325457245111465, -0.05097459629178047, -0.028255047276616096, 0.01653028279542923, -0.08451206237077713, -0.04104677215218544, -0.01971498131752014, -0.015118285082280636, -0.07007353752851486, -0.0798649936914444, -0.09937658905982971, -0.02855830453336239, -0.02473725564777851, -0.020024240016937256, -0.11433015763759613, -0.09485036134719849, 0.028844110667705536, -0.10121449083089828, -0.03900739178061485, -0.059247761964797974, 0.008073821663856506, 0.01801511086523533, -0.0653880313038826, -0.019103212282061577, -0.04182995855808258, -0.09159506857395172, -0.008733400143682957, 0.06156833469867706, 0.0382998064160347, -0.08364003896713257, -0.03898034617304802, 0.05496761202812195, -0.04365292936563492, 0.004960319958627224, -0.010193943977355957, -0.013440356589853764, -0.055664703249931335, 0.05695725977420807, -0.04809443652629852, -0.06564922630786896, -0.07966889441013336, -0.001192801515571773, -0.05046359822154045, 0.04391307011246681, 0.04891476407647133, -0.026856258511543274, 0.005623659584671259, -0.052534352988004684, -0.07078472524881363, -0.013750446029007435, 0.021410958841443062, 0.008627427741885185, 0.007447776850312948, 0.04958442971110344, -0.09497223794460297, -0.056863199919462204, 0.0016305596800521016, -0.06120174378156662, 0.03378121927380562, 0.012215561233460903, -0.0434860922396183, 0.13570143282413483, 0.07446197420358658, 0.08309242874383926, -0.016914144158363342, -0.018693437799811363, -0.05687819421291351, -0.007913177832961082, -0.016825063154101372, -0.13218216598033905, -0.10049024969339371, -0.0655352920293808, -0.03923813998699188, -0.003625148208811879, 0.008887944743037224, -0.08621332049369812, -0.05622689053416252, -0.0657610148191452, -0.017382781952619553, 0.010695969685912132, 0.0382501520216465, -0.029650064185261726, -0.0782860815525055, -0.03670894727110863, -0.09292107075452805, -0.09804896265268326, -0.011229651980102062, 0.03202226012945175, -0.05985330790281296, -0.013042123056948185, 0.047011274844408035, 0.09441077709197998, -0.10043538361787796, 0.04058863967657089, 0.09414942562580109, 0.016913633793592453, 0.016124367713928223, -0.05249738693237305, 0.06533578038215637, -0.010319937020540237, 0.07510728389024734, 0.08030404895544052, -0.10326434671878815, -0.03199407458305359, -0.07034127414226532, 0.03346795588731766, 0.09036999940872192, 0.05046568065881729, 0.012169316411018372, 0.08765186369419098, -0.06013600528240204, -0.15102362632751465, 0.006261753849685192, 0.036736324429512024, 0.05109509825706482, -0.0919102355837822, -0.071150042116642, -0.004343277774751186, -0.05703121796250343, -0.11260263621807098, -0.08672325313091278, -0.026328904554247856, -0.004868385847657919, -0.027545282617211342, -0.0639137402176857, 0.03290155902504921, 0.0755729079246521, 0.058200377970933914, -0.004641379229724407, -0.11070771515369415, -0.09984805434942245, -0.038996510207653046, 0.040988508611917496, -0.017528869211673737, -0.037647005170583725, 0.00048235556459985673, -0.046613987535238266, -0.0861104279756546, -0.1265975534915924, -0.14984779059886932, -0.10204491764307022, -0.12564507126808167, -0.06856144964694977, -0.0611317940056324, -0.0759214535355568, 0.039529670029878616, 0.05343698337674141, -0.08707578480243683, -0.06673137098550797, 0.06013037636876106, 0.05931803584098816, -0.01797901652753353, -0.03442070260643959, -0.08622517436742783, -0.10619264841079712, -0.06997828185558319, 0.032909542322158813, 0.0783996731042862, 0.10614261031150818, 0.10379897058010101, 0.011354063637554646, -0.09077668935060501, -0.04266635328531265, 0.036259155720472336, 0.05470222979784012, 0.028986262157559395, -0.06195516511797905, -0.011340409517288208, 0.011410725302994251, -0.12758883833885193, -0.11618110537528992, -0.1311134546995163, -0.02881389856338501, -0.008970323950052261, 0.013202261179685593, 0.00853582751005888, -0.07552989572286606, 0.004614171572029591, 0.06215333938598633, -0.006381746847182512, -0.04960957169532776, -0.10744301229715347, 0.0701899603009224, 0.09966038167476654, 0.09451398998498917, 0.051357585936784744, -0.05158889666199684, -0.03446001186966896, 0.0029949236195534468, -0.051737960427999496, -0.10479611903429031, -0.09484430402517319, -0.08224678039550781, -0.051531482487916946, -0.04021081328392029, 0.011540777049958706, 0.03977332264184952, -0.02028697170317173, -0.021702203899621964, 0.013206255622208118, -0.020386161282658577, 0.026979446411132812, -0.04688214510679245, -0.07807386666536331, -0.11721520870923996, -0.05582732334733009, -0.04083564877510071, 0.040037330240011215, -0.07672694325447083, -0.11923664808273315, 0.0427011214196682, -0.11686212569475174, -0.07812024652957916, -0.07263986766338348, -0.029264910146594048, -0.07969614863395691, -0.05721564590930939, -0.0026329332031309605, 0.07336575537919998, 0.04636453464627266, 0.06751447170972824, -0.009818118996918201, 0.05985125154256821, -0.0879579707980156, -0.09023488312959671, -0.09242333471775055, -0.0733979195356369, 0.001239114091731608, -0.05538040027022362, -0.10512824356555939, -0.10529256612062454, -0.022008448839187622, -0.03558635339140892, 0.1016065776348114, 0.16931471228599548, 0.11491775512695312, -0.050494514405727386, -0.020366385579109192, 0.09017515927553177, 0.06997080892324448, -0.001860919175669551, -0.1010970026254654, 0.07768850028514862, 0.016065768897533417, -0.07834895700216293, -0.09224000573158264, -0.004674805793911219, -0.0034948941320180893, -0.04895157739520073, -0.053286921232938766, -0.08241161704063416, -0.03411393240094185, 0.0024239453487098217, -0.05588505417108536, -0.03131597489118576, -0.020549599081277847, -0.03555542603135109, 0.03711429610848427, 0.08344028890132904, -0.08796527236700058, -0.033248916268348694, 0.041353777050971985, -0.024296240881085396, -0.021445728838443756, -0.0939841940999031, -0.045003727078437805, 0.0465252585709095, -0.08184585720300674, -0.028023846447467804, -0.06190231814980507, -0.05590212717652321, -0.012444956228137016, -0.04430646821856499, -0.1403622031211853, -0.07659647613763809, -0.07564443349838257, -0.10331239551305771, -0.16338403522968292, -0.04522935301065445, -0.0893058106303215, -0.08268601447343826, -0.14958706498146057, -0.1711084395647049, 0.12177353352308273, 0.1659497767686844, 0.05537433922290802, 0.18135428428649902, 0.12520818412303925, 0.12320910394191742, 0.15961121022701263, 0.09289151430130005, 0.0878371000289917, 0.038648173213005066, -0.036532383412122726, 0.0784059390425682, 0.04258495196700096, 0.08917755633592606, 0.029592767357826233, -0.04671228304505348, -0.1280701905488968, 0.03384361416101456, -0.0444147028028965, -0.09645646065473557, -0.009397147223353386, -0.0495455376803875, -0.011397154070436954, 0.08223965764045715, -0.0836593508720398, -0.01928994059562683, -0.03139008209109306, -0.046467676758766174, -0.08818148821592331, -0.0009257839992642403, -0.007974137552082539, 0.0455256849527359, -0.01128760538995266, -0.08042091131210327, -0.08781909197568893, -0.023250790312886238, 0.03925197198987007, -0.07243127375841141, 0.05835751071572304, 0.07596834003925323, -0.007737429346889257, 0.04626302421092987, -0.09019643813371658, -0.004928217269480228, -0.01739465817809105, 0.0363733135163784, -0.059861842542886734, 0.03078271821141243, 0.018138134852051735, 0.024883342906832695}, 
    {-0.01970607228577137, -0.022274551913142204, -0.09972470998764038, 0.06047460809350014, -0.06780578196048737, -0.015336981043219566, -0.04159135743975639, -0.02961391769349575, -0.0668235793709755, -0.03206650912761688, -0.04710400104522705, -0.0983237698674202, -0.0820036381483078, -0.10975255072116852, -0.019877521321177483, -0.05273110419511795, -0.0823245644569397, -0.06334801018238068, -0.04486561566591263, -0.04582493007183075, -0.1080542653799057, -0.05882779136300087, -0.03181154280900955, -0.08287815004587173, -0.01817392371594906, -0.03520456328988075, -0.010247141122817993, -0.03945072740316391, 0.07889943569898605, -0.09326454997062683, -0.051345344632864, -0.10861041396856308, -0.06380725651979446, -0.08425194770097733, -0.09797965735197067, -0.014149478636682034, -0.09079150855541229, -0.019638007506728172, -0.09753996878862381, -0.08264321088790894, -0.014788608998060226, -0.10317105054855347, 0.0020713824778795242, -0.07494784146547318, -0.0401611290872097, 0.022415412589907646, -0.06672157347202301, -0.010511822067201138, -0.03736777976155281, 0.012923973612487316, -0.04977152869105339, -0.0395701564848423, -0.08163132518529892, -0.08830022066831589, -0.041374027729034424, -0.03127245604991913, 0.09221523255109787, -0.1033925786614418, -0.04656708240509033, -0.08306542783975601, 0.0724998340010643, -0.030064266175031662, -0.05764510855078697, 0.032719869166612625, -0.05555764213204384, -0.03484726697206497, -0.03333234414458275, -0.07330182939767838, -0.09622500836849213, -0.08981268852949142, -0.02688951976597309, -0.012558693066239357, -0.03819618001580238, -0.09049854427576065, -0.057929396629333496, -0.09288366138935089, -0.07899180799722672, -0.05752022936940193, -0.05575920268893242, -0.020861467346549034, -0.09140437096357346, -0.04678364098072052, -0.04880170151591301, -0.03154580667614937, -0.0255183856934309, -0.08100983500480652, -0.0234925989061594, -0.07779225707054138, -0.04180107265710831, -0.07781872898340225, -0.0211725365370512, -0.023184435442090034, -0.05561172217130661, -0.01093665324151516, -0.10174921900033951, -0.09670059382915497, -0.016168737784028053, -0.05918319895863533, -0.03148872032761574, -0.0623178668320179, -0.037333253771066666, -0.09426416456699371, -0.025719009339809418, -0.09178551286458969, -0.014201725833117962, -0.046112678945064545, -0.06426754593849182, -0.08117472380399704, 0.09264419227838516, -0.0554359145462513, 0.055363547056913376, 0.022884244099259377, -0.08490431308746338, 0.051188115030527115, -0.015691537410020828, -0.028991611674427986, -0.06533196568489075, -0.03971313312649727, -0.03351159393787384, -0.06026805564761162, -0.08174677193164825, -0.042065251618623734, -0.07094089686870575, -0.0683722123503685, -0.06835519522428513, -0.05336509272456169, 0.03636155650019646, -0.0864521712064743, -0.06751341372728348, -0.018927348777651787, -0.07636919617652893, -0.029906481504440308, -0.029597463086247444, -0.021879900246858597, -0.0541839562356472, -0.10140034556388855, -0.010366871953010559, 0.06838738918304443, 0.05770657956600189, 0.076221764087677, 0.018322665244340897, -0.031691864132881165, 0.10169310122728348, 0.0856439471244812, -0.012897235341370106, 0.07784564793109894, 0.07787187397480011, 0.020310504361987114, -0.017623767256736755, -0.10123437643051147, -0.08569394052028656, 0.014446783810853958, -0.10367919504642487, -0.059090618044137955, -0.07774432003498077, -0.09447134286165237, -0.017171509563922882, 0.0384424552321434, -0.08218960464000702, -0.09322299808263779, 0.02651301771402359, -0.05934244766831398, 0.05320316553115845, 0.025746870785951614, 0.021526115015149117, 0.09955928474664688, -0.017156947404146194, -0.01267350371927023, -0.024959761649370193, -0.027394680306315422, -0.07050493359565735, -0.06399210542440414, 0.02408764511346817, -0.02405061386525631, -0.08856585621833801, -0.09947748482227325, -0.02556738443672657, -0.04238850623369217, -0.10564187169075012, -0.011129120364785194, -0.09132067114114761, -0.05704943463206291, -0.05792617425322533, -0.0898483544588089, -0.06297582387924194, -0.07785262912511826, 0.04736603796482086, -0.06656181067228317, -0.04721415042877197, -0.05126437544822693, -0.09323340654373169, -0.07786869257688522, -0.033164236694574356, -0.012173584662377834, -0.03276429325342178, -0.02018982172012329, -0.039172641932964325, -0.09993088990449905, -0.06775302439928055, -0.10014762729406357, -0.028751783072948456, -0.05313411355018616, -0.09539289027452469, -0.035830557346343994, -0.027287891134619713, -0.10202758759260178, -0.06889668852090836, -0.025718694552779198, -0.07665093243122101, -0.09985600411891937, -0.10402164608240128, -0.033144138753414154, -0.039163365960121155, -0.08628825843334198, -0.09423927217721939, -0.061690639704465866, -0.06196054443717003, -0.03581898659467697, -0.061604633927345276, -0.08753882348537445, -0.03489693999290466, -0.0833263173699379, -0.05442487820982933, -0.09717173874378204, -0.08247730135917664, -0.034068189561367035, -0.021189264953136444, -0.08625759929418564, -0.08194024115800858, -0.03100680373609066, -0.03527377173304558, -0.04074881598353386, -0.07209476828575134, 0.03487157076597214, -0.05992274731397629, -0.1085021048784256, 0.0513598658144474, -0.03101421520113945, 0.011263073422014713, -0.049444712698459625, -0.08422502875328064, -0.0656793862581253, -0.030215242877602577, 0.04421732574701309, -0.08216490596532822, -0.10096205025911331, -0.10284241288900375, -0.04378975182771683, 0.016469519585371017, -0.05269623175263405, -0.012536647729575634, -0.10216013342142105, -0.1022348627448082, -0.015076865442097187, -0.0456722117960453, -0.07790739089250565, -0.02362019754946232, -0.03964335098862648, -0.08177720755338669, -0.08070201426744461, -0.039167650043964386, -0.04253852367401123, -0.05171216279268265, -0.011284952983260155, 0.013689830899238586, -0.06920567899942398, -0.038576819002628326, -0.010390608571469784, -0.048288267105817795, -0.04075663536787033, -0.015776047483086586, -0.10559599846601486, -0.10133393108844757, -0.03693829104304314, -0.04967578873038292, -0.013586653396487236, -0.02389158122241497, -0.049337081611156464, -0.052674997597932816, -0.037374719977378845, -0.05598253011703491, 0.09535115212202072, 0.09832938015460968, 0.05687025934457779, -0.10936041176319122, -0.02921762503683567, -0.07292255014181137, -0.10676171630620956, -0.0587276890873909, -0.07710488885641098, -0.023979654535651207, -0.0656668096780777, -0.04105866700410843, -0.04064548388123512, -0.08108437806367874, -0.07444239407777786, -0.05124688148498535, -0.07522311061620712, -0.08474259823560715, -0.0647449642419815, -0.008108305744826794, -0.009920313954353333, -0.04555383697152138, -0.049713052809238434, -0.10084419697523117, -0.04979414865374565, -0.026353202760219574, 0.08998213708400726, 0.1030058041214943, 0.07652195543050766, -0.027750782668590546, 0.10795967280864716, 0.1084359809756279, 0.05655756965279579, 0.056245818734169006, 0.0632123127579689, 0.02591441385447979, 0.030857166275382042, 0.08009368181228638, 0.028638720512390137, 0.04158429056406021, 0.07026132941246033, 0.028606388717889786, 0.06691477447748184, -0.09361853450536728, -0.030517732724547386, -0.03519941121339798, -0.048406049609184265, -0.04944661259651184, -0.10344288498163223, -0.06387770920991898, -0.054207831621170044, -0.08477690815925598, -0.10394664108753204, -0.02002587355673313, -0.09483527392148972, -0.05951995775103569, -0.08017822355031967, -0.06300530582666397, -0.06280162185430527, -0.08296528458595276, -0.0824563056230545, -0.029658259823918343, -0.08238081634044647, -0.05930975079536438, -0.06307759135961533, -0.020581338554620743, -0.10348107665777206, -0.07424036413431168, -0.014576257206499577, -0.016511354595422745, -0.10221792012453079, 0.10083875060081482, -0.056452102959156036, -0.06784166395664215, -0.03985679894685745, -0.024855976924300194, 0.029337169602513313, -0.06517226994037628, 0.08842261880636215, 0.08890000730752945, -0.09021714329719543, 0.06182945892214775, -0.03898430988192558, 0.023867260664701462, 0.06514278054237366, 0.022240882739424706, 0.026973895728588104, -0.09274345636367798, 0.099495530128479, -0.10402829945087433, -0.07640667259693146, 0.04500725492835045, 0.09827397018671036, 0.07070128619670868, -0.018451960757374763, -0.05387347564101219, -0.05755462124943733, 0.021967807784676552, 0.0440673790872097, -0.006417977623641491, -0.027168983593583107, -0.03364063426852226, -0.10299287736415863, -0.07158275693655014, -0.10624129325151443, -0.01940029300749302, -0.08760407567024231, -0.03406106308102608, -0.08845540136098862, 0.05182362720370293, -0.03791958838701248, -0.06338062137365341, -0.07309602946043015, -0.08246904611587524, -0.03561358153820038, 0.039405353367328644, -0.03740806505084038, -0.023484017699956894, -0.003589804982766509}, 
